<?xml version="1.0"?>
<opencv_storage>
<stage7>
  <maxWeakCount>90</maxWeakCount>
  <stageThreshold>-8.9118361473083496e-01</stageThreshold>
  <weakClassifiers>
    <_>
      <internalNodes>
        0 -1 110613 -1.8514618277549744e-03</internalNodes>
      <leafValues>
        -4.9707602709531784e-02 -3.1451612710952759e-01</leafValues></_>
    <_>
      <internalNodes>
        0 -1 69404 2.2465838992502540e-04</internalNodes>
      <leafValues>
        6.8924784660339355e-02 -1.7087021470069885e-01</leafValues></_>
    <_>
      <internalNodes>
        0 -1 189553 3.1862553209066391e-02</internalNodes>
      <leafValues>
        -3.2071869820356369e-02 3.6573928594589233e-01</leafValues></_>
    <_>
      <internalNodes>
        0 -1 13338 4.7962464392185211e-02</internalNodes>
      <leafValues>
        -4.6059999614953995e-02 2.4869893491268158e-01</leafValues></_>
    <_>
      <internalNodes>
        0 -1 170833 -5.7301176711916924e-03</internalNodes>
      <leafValues>
        3.3705249428749084e-01 -3.3010806888341904e-02</leafValues></_>
    <_>
      <internalNodes>
        0 -1 187977 3.0514296144247055e-02</internalNodes>
      <leafValues>
        1.1686473153531551e-02 -1.</leafValues></_>
    <_>
      <internalNodes>
        0 -1 190278 -3.0999520095065236e-04</internalNodes>
      <leafValues>
        1.4437325298786163e-01 -7.3522552847862244e-02</leafValues></_>
    <_>
      <internalNodes>
        0 -1 81161 -7.3134062404278666e-05</internalNodes>
      <leafValues>
        -1.2701103091239929e-01 8.4903188049793243e-02</leafValues></_>
    <_>
      <internalNodes>
        0 -1 92286 -2.8860317543148994e-03</internalNodes>
      <leafValues>
        3.1355321407318115e-01 -2.4327296763658524e-02</leafValues></_>
    <_>
      <internalNodes>
        0 -1 169172 1.9185215234756470e-02</internalNodes>
      <leafValues>
        -3.9374437183141708e-02 3.5216674208641052e-01</leafValues></_>
    <_>
      <internalNodes>
        0 -1 158637 -2.0619548857212067e-02</internalNodes>
      <leafValues>
        2.9685094952583313e-01 -2.2126343101263046e-02</leafValues></_>
    <_>
      <internalNodes>
        0 -1 29781 7.5004678219556808e-03</internalNodes>
      <leafValues>
        -2.9525227844715118e-02 4.6134069561958313e-01</leafValues></_>
    <_>
      <internalNodes>
        0 -1 92350 -8.6239975644275546e-05</internalNodes>
      <leafValues>
        -1.4660561084747314e-01 8.0995328724384308e-02</leafValues></_>
    <_>
      <internalNodes>
        0 -1 173836 -3.8885078392922878e-03</internalNodes>
      <leafValues>
        -2.7343502640724182e-01 4.3630708009004593e-02</leafValues></_>
    <_>
      <internalNodes>
        0 -1 116162 -3.7398213148117065e-01</internalNodes>
      <leafValues>
        -4.3680250644683838e-01 3.1600572168827057e-02</leafValues></_>
    <_>
      <internalNodes>
        0 -1 174526 2.6816578611033037e-05</internalNodes>
      <leafValues>
        9.6743434667587280e-02 -1.2211714684963226e-01</leafValues></_>
    <_>
      <internalNodes>
        0 -1 178802 -1.6303000971674919e-02</internalNodes>
      <leafValues>
        -8.3030462265014648e-01 1.5032848343253136e-02</leafValues></_>
    <_>
      <internalNodes>
        0 -1 104535 -1.0152318282052875e-04</internalNodes>
      <leafValues>
        -1.2837387621402740e-01 8.6090229451656342e-02</leafValues></_>
    <_>
      <internalNodes>
        0 -1 127359 8.1443544477224350e-03</internalNodes>
      <leafValues>
        -1.1370308697223663e-02 6.2265187501907349e-01</leafValues></_>
    <_>
      <internalNodes>
        0 -1 25345 5.0207516178488731e-03</internalNodes>
      <leafValues>
        3.9864439517259598e-02 -2.8936648368835449e-01</leafValues></_>
    <_>
      <internalNodes>
        0 -1 181722 -2.2058156901039183e-04</internalNodes>
      <leafValues>
        1.5926289558410645e-01 -7.8260675072669983e-02</leafValues></_>
    <_>
      <internalNodes>
        0 -1 76033 3.0989069491624832e-03</internalNodes>
      <leafValues>
        2.5524845346808434e-02 -4.1229438781738281e-01</leafValues></_>
    <_>
      <internalNodes>
        0 -1 102241 1.7844047397375107e-03</internalNodes>
      <leafValues>
        -3.8318213075399399e-02 3.4788447618484497e-01</leafValues></_>
    <_>
      <internalNodes>
        0 -1 189225 -3.3628329401835799e-04</internalNodes>
      <leafValues>
        -1.4399541914463043e-01 7.6123632490634918e-02</leafValues></_>
    <_>
      <internalNodes>
        0 -1 138455 -2.3068071459420025e-04</internalNodes>
      <leafValues>
        1.5276643633842468e-01 -7.5957581400871277e-02</leafValues></_>
    <_>
      <internalNodes>
        0 -1 101464 5.0902320072054863e-03</internalNodes>
      <leafValues>
        -1.0180185548961163e-02 8.4506231546401978e-01</leafValues></_>
    <_>
      <internalNodes>
        0 -1 89477 -5.9565313160419464e-02</internalNodes>
      <leafValues>
        -2.7085539698600769e-01 4.1759911924600601e-02</leafValues></_>
    <_>
      <internalNodes>
        0 -1 21440 3.2584458589553833e-02</internalNodes>
      <leafValues>
        -7.1708112955093384e-02 1.5643507242202759e-01</leafValues></_>
    <_>
      <internalNodes>
        0 -1 108899 -4.5943367294967175e-03</internalNodes>
      <leafValues>
        1.8085055053234100e-01 -6.6044107079505920e-02</leafValues></_>
    <_>
      <internalNodes>
        0 -1 63675 1.9364318577572703e-03</internalNodes>
      <leafValues>
        6.0537196695804596e-02 -2.0296612381935120e-01</leafValues></_>
    <_>
      <internalNodes>
        0 -1 97879 -1.3500053319148719e-04</internalNodes>
      <leafValues>
        -1.4419703185558319e-01 8.5518658161163330e-02</leafValues></_>
    <_>
      <internalNodes>
        0 -1 190696 2.9150801710784435e-03</internalNodes>
      <leafValues>
        -1.9145201891660690e-02 6.7942535877227783e-01</leafValues></_>
    <_>
      <internalNodes>
        0 -1 185599 -8.1033405149355531e-04</internalNodes>
      <leafValues>
        2.3742732405662537e-01 -4.8163384199142456e-02</leafValues></_>
    <_>
      <internalNodes>
        0 -1 5448 1.4642417430877686e-02</internalNodes>
      <leafValues>
        -3.2296359539031982e-02 3.3870872855186462e-01</leafValues></_>
    <_>
      <internalNodes>
        0 -1 6283 1.8350692698732018e-04</internalNodes>
      <leafValues>
        7.2883941233158112e-02 -1.7238251864910126e-01</leafValues></_>
    <_>
      <internalNodes>
        0 -1 76039 8.7929092114791274e-04</internalNodes>
      <leafValues>
        -7.3406636714935303e-02 1.5296424925327301e-01</leafValues></_>
    <_>
      <internalNodes>
        0 -1 37207 8.6792759248055518e-05</internalNodes>
      <leafValues>
        7.9090230166912079e-02 -1.3730780780315399e-01</leafValues></_>
    <_>
      <internalNodes>
        0 -1 11363 -1.1146467179059982e-02</internalNodes>
      <leafValues>
        4.9325460195541382e-01 -2.0364450290799141e-02</leafValues></_>
    <_>
      <internalNodes>
        0 -1 167228 -1.2092860415577888e-03</internalNodes>
      <leafValues>
        2.1534393727779388e-01 -5.4121654480695724e-02</leafValues></_>
    <_>
      <internalNodes>
        0 -1 14565 -4.3791814823634923e-04</internalNodes>
      <leafValues>
        -1.9190919399261475e-01 6.3159130513668060e-02</leafValues></_>
    <_>
      <internalNodes>
        0 -1 160365 4.5671403408050537e-02</internalNodes>
      <leafValues>
        2.9992414638400078e-02 -3.9075109362602234e-01</leafValues></_>
    <_>
      <internalNodes>
        0 -1 114428 8.9065767824649811e-03</internalNodes>
      <leafValues>
        -2.9994893819093704e-02 3.8897886872291565e-01</leafValues></_>
    <_>
      <internalNodes>
        0 -1 90382 7.9269846901297569e-03</internalNodes>
      <leafValues>
        -7.2016574442386627e-02 1.6520754992961884e-01</leafValues></_>
    <_>
      <internalNodes>
        0 -1 60964 -3.0892877839505672e-03</internalNodes>
      <leafValues>
        -2.3810885846614838e-01 4.9466192722320557e-02</leafValues></_>
    <_>
      <internalNodes>
        0 -1 106262 1.5915656462311745e-02</internalNodes>
      <leafValues>
        -3.8456387817859650e-02 3.5521435737609863e-01</leafValues></_>
    <_>
      <internalNodes>
        0 -1 91998 1.4893382787704468e-01</internalNodes>
      <leafValues>
        2.5189796462655067e-02 -6.3596087694168091e-01</leafValues></_>
    <_>
      <internalNodes>
        0 -1 14459 -7.7609762549400330e-02</internalNodes>
      <leafValues>
        -5.8227854967117310e-01 1.9256439059972763e-02</leafValues></_>
    <_>
      <internalNodes>
        0 -1 182956 -1.9529336132109165e-03</internalNodes>
      <leafValues>
        1.7258386313915253e-01 -6.8495325744152069e-02</leafValues></_>
    <_>
      <internalNodes>
        0 -1 165577 1.9346210174262524e-03</internalNodes>
      <leafValues>
        5.3964681923389435e-02 -2.2299680113792419e-01</leafValues></_>
    <_>
      <internalNodes>
        0 -1 138870 4.7811572439968586e-03</internalNodes>
      <leafValues>
        1.8763203173875809e-02 -5.8715587854385376e-01</leafValues></_>
    <_>
      <internalNodes>
        0 -1 178188 1.9221580587327480e-03</internalNodes>
      <leafValues>
        -4.6132870018482208e-02 2.5965178012847900e-01</leafValues></_>
    <_>
      <internalNodes>
        0 -1 176696 3.9697056636214256e-03</internalNodes>
      <leafValues>
        4.1110232472419739e-02 -3.1571918725967407e-01</leafValues></_>
    <_>
      <internalNodes>
        0 -1 46754 -2.1025431342422962e-03</internalNodes>
      <leafValues>
        -2.9031714797019958e-01 3.8425873965024948e-02</leafValues></_>
    <_>
      <internalNodes>
        0 -1 185076 -3.9437925443053246e-03</internalNodes>
      <leafValues>
        2.1963028609752655e-01 -5.5103220045566559e-02</leafValues></_>
    <_>
      <internalNodes>
        0 -1 131975 3.3756017219275236e-03</internalNodes>
      <leafValues>
        -9.2765472829341888e-02 1.3877958059310913e-01</leafValues></_>
    <_>
      <internalNodes>
        0 -1 69236 -5.4517630487680435e-02</internalNodes>
      <leafValues>
        1.3695222139358521e-01 -8.8486231863498688e-02</leafValues></_>
    <_>
      <internalNodes>
        0 -1 78489 -3.1052376143634319e-03</internalNodes>
      <leafValues>
        1.7757143080234528e-01 -7.1227721869945526e-02</leafValues></_>
    <_>
      <internalNodes>
        0 -1 90944 2.3825285024940968e-03</internalNodes>
      <leafValues>
        7.2809562087059021e-02 -1.7603495717048645e-01</leafValues></_>
    <_>
      <internalNodes>
        0 -1 170631 4.8774010501801968e-03</internalNodes>
      <leafValues>
        -2.3872271180152893e-02 5.3131592273712158e-01</leafValues></_>
    <_>
      <internalNodes>
        0 -1 50620 2.1950110793113708e-02</internalNodes>
      <leafValues>
        2.0424399524927139e-02 -6.2200576066970825e-01</leafValues></_>
    <_>
      <internalNodes>
        0 -1 183022 5.7078496320173144e-04</internalNodes>
      <leafValues>
        -1.0043679922819138e-01 1.2381543964147568e-01</leafValues></_>
    <_>
      <internalNodes>
        0 -1 113404 8.0576717853546143e-02</internalNodes>
      <leafValues>
        -1.6623919829726219e-02 6.6298377513885498e-01</leafValues></_>
    <_>
      <internalNodes>
        0 -1 20511 3.3688645809888840e-02</internalNodes>
      <leafValues>
        1.8187396228313446e-02 -6.6616624593734741e-01</leafValues></_>
    <_>
      <internalNodes>
        0 -1 46779 1.9623227417469025e-02</internalNodes>
      <leafValues>
        -4.8833817243576050e-02 2.6092687249183655e-01</leafValues></_>
    <_>
      <internalNodes>
        0 -1 112339 3.1666826456785202e-02</internalNodes>
      <leafValues>
        -3.8380645215511322e-02 3.3887910842895508e-01</leafValues></_>
    <_>
      <internalNodes>
        0 -1 120382 2.9824304580688477e-01</internalNodes>
      <leafValues>
        -1.3707100413739681e-02 8.9260107278823853e-01</leafValues></_>
    <_>
      <internalNodes>
        0 -1 159672 -4.3793171062134206e-04</internalNodes>
      <leafValues>
        1.4652472734451294e-01 -8.0434143543243408e-02</leafValues></_>
    <_>
      <internalNodes>
        0 -1 170828 -1.4902005204930902e-04</internalNodes>
      <leafValues>
        -1.3451114296913147e-01 9.6172280609607697e-02</leafValues></_>
    <_>
      <internalNodes>
        0 -1 14794 -6.1921970918774605e-03</internalNodes>
      <leafValues>
        -5.0256329774856567e-01 1.9126415252685547e-02</leafValues></_>
    <_>
      <internalNodes>
        0 -1 121646 -8.6021423339843750e-04</internalNodes>
      <leafValues>
        2.1520061790943146e-01 -5.5843822658061981e-02</leafValues></_>
    <_>
      <internalNodes>
        0 -1 80268 -8.1139430403709412e-03</internalNodes>
      <leafValues>
        5.9654790163040161e-01 -2.0089106634259224e-02</leafValues></_>
    <_>
      <internalNodes>
        0 -1 8930 1.1283613741397858e-01</internalNodes>
      <leafValues>
        2.0871995016932487e-02 -6.8327856063842773e-01</leafValues></_>
    <_>
      <internalNodes>
        0 -1 51290 6.9228559732437134e-02</internalNodes>
      <leafValues>
        -1.9657744094729424e-02 7.6884901523590088e-01</leafValues></_>
    <_>
      <internalNodes>
        0 -1 33242 -6.2415469437837601e-03</internalNodes>
      <leafValues>
        5.7572156190872192e-01 -1.8826732411980629e-02</leafValues></_>
    <_>
      <internalNodes>
        0 -1 97670 -1.3257766142487526e-02</internalNodes>
      <leafValues>
        -8.2332122325897217e-01 1.6323352232575417e-02</leafValues></_>
    <_>
      <internalNodes>
        0 -1 176356 -1.4935003127902746e-04</internalNodes>
      <leafValues>
        -1.3995933532714844e-01 8.0778636038303375e-02</leafValues></_>
    <_>
      <internalNodes>
        0 -1 56639 -2.0384855568408966e-02</internalNodes>
      <leafValues>
        2.3399817943572998e-01 -5.9398990124464035e-02</leafValues></_>
    <_>
      <internalNodes>
        0 -1 155002 -3.0583476182073355e-03</internalNodes>
      <leafValues>
        -2.1880847215652466e-01 5.8499544858932495e-02</leafValues></_>
    <_>
      <internalNodes>
        0 -1 149083 -5.6991118937730789e-02</internalNodes>
      <leafValues>
        4.1692897677421570e-01 -3.2668951898813248e-02</leafValues></_>
    <_>
      <internalNodes>
        0 -1 82431 -2.0739839971065521e-01</internalNodes>
      <leafValues>
        -3.8106784224510193e-01 3.6007199436426163e-02</leafValues></_>
    <_>
      <internalNodes>
        0 -1 125597 -4.1265692561864853e-02</internalNodes>
      <leafValues>
        2.5896826386451721e-01 -5.4715164005756378e-02</leafValues></_>
    <_>
      <internalNodes>
        0 -1 146359 -1.2469722423702478e-03</internalNodes>
      <leafValues>
        -1.8265897035598755e-01 8.4986440837383270e-02</leafValues></_>
    <_>
      <internalNodes>
        0 -1 10109 -2.3709451779723167e-03</internalNodes>
      <leafValues>
        7.3160254955291748e-01 -1.7180182039737701e-02</leafValues></_>
    <_>
      <internalNodes>
        0 -1 190391 4.5625157654285431e-03</internalNodes>
      <leafValues>
        -3.5465888679027557e-02 3.0287161469459534e-01</leafValues></_>
    <_>
      <internalNodes>
        0 -1 188952 2.4777434766292572e-02</internalNodes>
      <leafValues>
        9.7236046567559242e-03 -9.5599299669265747e-01</leafValues></_>
    <_>
      <internalNodes>
        0 -1 189068 4.9595991149544716e-03</internalNodes>
      <leafValues>
        -2.3787867277860641e-02 6.2040728330612183e-01</leafValues></_>
    <_>
      <internalNodes>
        0 -1 88533 5.9130899608135223e-02</internalNodes>
      <leafValues>
        2.1344427019357681e-02 -5.8966082334518433e-01</leafValues></_>
    <_>
      <internalNodes>
        0 -1 137964 -1.1417774483561516e-02</internalNodes>
      <leafValues>
        4.7252079844474792e-01 -2.7172058820724487e-02</leafValues></_>
    <_>
      <internalNodes>
        0 -1 153225 -1.0917084291577339e-02</internalNodes>
      <leafValues>
        -6.7768478393554688e-01 1.9888596609234810e-02</leafValues></_>
    <_>
      <internalNodes>
        0 -1 41330 1.7617482226341963e-03</internalNodes>
      <leafValues>
        8.0144986510276794e-02 -1.5034736692905426e-01</leafValues></_></weakClassifiers></stage7>
</opencv_storage>
