<?xml version="1.0"?>
<opencv_storage>
<stage4>
  <maxWeakCount>76</maxWeakCount>
  <stageThreshold>-9.7527974843978882e-01</stageThreshold>
  <weakClassifiers>
    <_>
      <internalNodes>
        0 -1 29222 6.5811108797788620e-03</internalNodes>
      <leafValues>
        -3.1717824935913086e-01 1.5985790640115738e-02</leafValues></_>
    <_>
      <internalNodes>
        0 -1 170393 1.2200225610285997e-03</internalNodes>
      <leafValues>
        -9.8651297390460968e-02 1.9583664834499359e-01</leafValues></_>
    <_>
      <internalNodes>
        0 -1 190129 9.6297124400734901e-04</internalNodes>
      <leafValues>
        -7.1615047752857208e-02 2.5545793771743774e-01</leafValues></_>
    <_>
      <internalNodes>
        0 -1 2294 -3.6850271862931550e-04</internalNodes>
      <leafValues>
        -1.6141620278358459e-01 1.0048353672027588e-01</leafValues></_>
    <_>
      <internalNodes>
        0 -1 138685 -5.4999231360852718e-04</internalNodes>
      <leafValues>
        1.8073055148124695e-01 -8.7492763996124268e-02</leafValues></_>
    <_>
      <internalNodes>
        0 -1 66632 -2.8445222415030003e-03</internalNodes>
      <leafValues>
        -2.5572967529296875e-01 6.0003213584423065e-02</leafValues></_>
    <_>
      <internalNodes>
        0 -1 78550 -6.6187640186399221e-04</internalNodes>
      <leafValues>
        1.9825956225395203e-01 -7.3916457593441010e-02</leafValues></_>
    <_>
      <internalNodes>
        0 -1 9333 -1.5785306692123413e-02</internalNodes>
      <leafValues>
        -1.3233642280101776e-01 1.3716511428356171e-01</leafValues></_>
    <_>
      <internalNodes>
        0 -1 127898 -5.0791176036000252e-03</internalNodes>
      <leafValues>
        2.0046167075634003e-01 -9.2682406306266785e-02</leafValues></_>
    <_>
      <internalNodes>
        0 -1 5465 -6.4478444983251393e-05</internalNodes>
      <leafValues>
        -1.2899424135684967e-01 1.2773667275905609e-01</leafValues></_>
    <_>
      <internalNodes>
        0 -1 55009 -1.4156663790345192e-02</internalNodes>
      <leafValues>
        2.5699079036712646e-01 -6.5251819789409637e-02</leafValues></_>
    <_>
      <internalNodes>
        0 -1 103907 6.6883751424029469e-04</internalNodes>
      <leafValues>
        1.0147716104984283e-01 -1.6933159530162811e-01</leafValues></_>
    <_>
      <internalNodes>
        0 -1 166656 -5.0187632441520691e-03</internalNodes>
      <leafValues>
        2.5578790903091431e-01 -6.4969904720783234e-02</leafValues></_>
    <_>
      <internalNodes>
        0 -1 1855 6.9573715329170227e-02</internalNodes>
      <leafValues>
        -4.7034416347742081e-02 4.8311272263526917e-01</leafValues></_>
    <_>
      <internalNodes>
        0 -1 190723 1.1741936032194644e-04</internalNodes>
      <leafValues>
        -1.1271835118532181e-01 1.5240715444087982e-01</leafValues></_>
    <_>
      <internalNodes>
        0 -1 179572 3.9003614801913500e-04</internalNodes>
      <leafValues>
        9.2625573277473450e-02 -1.8712525069713593e-01</leafValues></_>
    <_>
      <internalNodes>
        0 -1 153921 -1.4827575068920851e-04</internalNodes>
      <leafValues>
        -1.4854736626148224e-01 1.0936162620782852e-01</leafValues></_>
    <_>
      <internalNodes>
        0 -1 142104 -2.8794955462217331e-02</internalNodes>
      <leafValues>
        3.8583764433860779e-01 -4.4549804180860519e-02</leafValues></_>
    <_>
      <internalNodes>
        0 -1 62673 1.2203609570860863e-02</internalNodes>
      <leafValues>
        3.9229013025760651e-02 -4.5098784565925598e-01</leafValues></_>
    <_>
      <internalNodes>
        0 -1 61926 2.9562627896666527e-03</internalNodes>
      <leafValues>
        -4.9436528235673904e-02 4.0565714240074158e-01</leafValues></_>
    <_>
      <internalNodes>
        0 -1 102280 1.2238081544637680e-03</internalNodes>
      <leafValues>
        -6.5628930926322937e-02 2.0871731638908386e-01</leafValues></_>
    <_>
      <internalNodes>
        0 -1 121873 7.3535047704353929e-05</internalNodes>
      <leafValues>
        1.0061706602573395e-01 -1.4544118940830231e-01</leafValues></_>
    <_>
      <internalNodes>
        0 -1 179156 -1.8266230472363532e-04</internalNodes>
      <leafValues>
        1.1653298139572144e-01 -1.2690268456935883e-01</leafValues></_>
    <_>
      <internalNodes>
        0 -1 2226 -1.6222399473190308e-01</internalNodes>
      <leafValues>
        -1.8264961242675781e-01 8.7395526468753815e-02</leafValues></_>
    <_>
      <internalNodes>
        0 -1 160726 -8.5144648328423500e-03</internalNodes>
      <leafValues>
        -3.7489590048789978e-01 3.7170883268117905e-02</leafValues></_>
    <_>
      <internalNodes>
        0 -1 9359 3.6665868759155273e-01</internalNodes>
      <leafValues>
        2.4776821956038475e-02 -7.5716811418533325e-01</leafValues></_>
    <_>
      <internalNodes>
        0 -1 183110 2.3096367716789246e-02</internalNodes>
      <leafValues>
        1.6654606908559799e-02 -6.2929797172546387e-01</leafValues></_>
    <_>
      <internalNodes>
        0 -1 187733 -1.1264970526099205e-03</internalNodes>
      <leafValues>
        3.7932363152503967e-01 -4.0554877370595932e-02</leafValues></_>
    <_>
      <internalNodes>
        0 -1 43316 -9.2938039451837540e-03</internalNodes>
      <leafValues>
        -3.0157101154327393e-01 5.1117952913045883e-02</leafValues></_>
    <_>
      <internalNodes>
        0 -1 15040 -9.5899211009964347e-04</internalNodes>
      <leafValues>
        -1.6452829539775848e-01 1.0341503471136093e-01</leafValues></_>
    <_>
      <internalNodes>
        0 -1 127805 -7.1472153067588806e-03</internalNodes>
      <leafValues>
        3.8040676712989807e-01 -4.1730958968400955e-02</leafValues></_>
    <_>
      <internalNodes>
        0 -1 106123 1.3629462569952011e-02</internalNodes>
      <leafValues>
        -8.8208854198455811e-02 1.8432797491550446e-01</leafValues></_>
    <_>
      <internalNodes>
        0 -1 168608 -2.5100191123783588e-03</internalNodes>
      <leafValues>
        1.8211314082145691e-01 -9.3990206718444824e-02</leafValues></_>
    <_>
      <internalNodes>
        0 -1 127936 -6.3170038629323244e-04</internalNodes>
      <leafValues>
        -1.8362359702587128e-01 8.4021553397178650e-02</leafValues></_>
    <_>
      <internalNodes>
        0 -1 48781 -8.4341607987880707e-02</internalNodes>
      <leafValues>
        -7.3259228467941284e-01 2.0738240331411362e-02</leafValues></_>
    <_>
      <internalNodes>
        0 -1 157501 -6.5388783812522888e-02</internalNodes>
      <leafValues>
        -1.9293613731861115e-01 7.5430855154991150e-02</leafValues></_>
    <_>
      <internalNodes>
        0 -1 121570 -6.8682054989039898e-03</internalNodes>
      <leafValues>
        -8.1977242231369019e-01 1.6221931204199791e-02</leafValues></_>
    <_>
      <internalNodes>
        0 -1 11901 -1.1726140510290861e-03</internalNodes>
      <leafValues>
        -3.3804249763488770e-01 3.9693146944046021e-02</leafValues></_>
    <_>
      <internalNodes>
        0 -1 101469 -1.5291050076484680e-03</internalNodes>
      <leafValues>
        2.0927931368350983e-01 -7.9747945070266724e-02</leafValues></_>
    <_>
      <internalNodes>
        0 -1 81242 2.7798950672149658e-02</internalNodes>
      <leafValues>
        -3.1568702310323715e-02 5.0811928510665894e-01</leafValues></_>
    <_>
      <internalNodes>
        0 -1 185599 -5.5882683955132961e-04</internalNodes>
      <leafValues>
        2.3794262111186981e-01 -6.1608046293258667e-02</leafValues></_>
    <_>
      <internalNodes>
        0 -1 28888 1.7950415611267090e-02</internalNodes>
      <leafValues>
        3.0082449316978455e-02 -5.4510086774826050e-01</leafValues></_>
    <_>
      <internalNodes>
        0 -1 102722 -8.4633752703666687e-03</internalNodes>
      <leafValues>
        6.2974238395690918e-01 -2.5847136974334717e-02</leafValues></_>
    <_>
      <internalNodes>
        0 -1 179405 1.1936682276427746e-03</internalNodes>
      <leafValues>
        -8.4023587405681610e-02 1.6057102382183075e-01</leafValues></_>
    <_>
      <internalNodes>
        0 -1 27412 -1.5396808157674968e-04</internalNodes>
      <leafValues>
        -1.6467909514904022e-01 8.6225353181362152e-02</leafValues></_>
    <_>
      <internalNodes>
        0 -1 1708 -1.4012757688760757e-02</internalNodes>
      <leafValues>
        -8.4775340557098389e-01 1.5368684194982052e-02</leafValues></_>
    <_>
      <internalNodes>
        0 -1 2689 6.1099290847778320e-02</internalNodes>
      <leafValues>
        -5.9556413441896439e-02 2.5076183676719666e-01</leafValues></_>
    <_>
      <internalNodes>
        0 -1 76033 -1.1052792251575738e-04</internalNodes>
      <leafValues>
        -1.5231408178806305e-01 9.3744456768035889e-02</leafValues></_>
    <_>
      <internalNodes>
        0 -1 152180 -2.4653319269418716e-04</internalNodes>
      <leafValues>
        1.5926960110664368e-01 -9.4790428876876831e-02</leafValues></_>
    <_>
      <internalNodes>
        0 -1 187785 -2.1696290932595730e-03</internalNodes>
      <leafValues>
        3.3271235227584839e-01 -4.5940790325403214e-02</leafValues></_>
    <_>
      <internalNodes>
        0 -1 172692 -2.3164071535575204e-05</internalNodes>
      <leafValues>
        -1.3316641747951508e-01 1.1412835121154785e-01</leafValues></_>
    <_>
      <internalNodes>
        0 -1 109769 -1.5238663181662560e-02</internalNodes>
      <leafValues>
        -7.8940540552139282e-01 2.0819924771785736e-02</leafValues></_>
    <_>
      <internalNodes>
        0 -1 84301 -1.1652121320366859e-03</internalNodes>
      <leafValues>
        1.8911395967006683e-01 -8.1582427024841309e-02</leafValues></_>
    <_>
      <internalNodes>
        0 -1 28710 -7.2838447522372007e-05</internalNodes>
      <leafValues>
        -1.4050909876823425e-01 1.0528653115034103e-01</leafValues></_>
    <_>
      <internalNodes>
        0 -1 176995 1.1601428501307964e-02</internalNodes>
      <leafValues>
        -3.0882043763995171e-02 5.1166933774948120e-01</leafValues></_>
    <_>
      <internalNodes>
        0 -1 171476 -8.5728056728839874e-03</internalNodes>
      <leafValues>
        -8.5006988048553467e-01 2.0642809569835663e-02</leafValues></_>
    <_>
      <internalNodes>
        0 -1 184474 -1.2987170368432999e-02</internalNodes>
      <leafValues>
        7.8383946418762207e-01 -2.3585820570588112e-02</leafValues></_>
    <_>
      <internalNodes>
        0 -1 155382 -9.6623273566365242e-04</internalNodes>
      <leafValues>
        3.6867678165435791e-01 -3.5680547356605530e-02</leafValues></_>
    <_>
      <internalNodes>
        0 -1 94623 1.7901771934702992e-03</internalNodes>
      <leafValues>
        4.8442475497722626e-02 -3.6003518104553223e-01</leafValues></_>
    <_>
      <internalNodes>
        0 -1 164273 7.2586229071021080e-03</internalNodes>
      <leafValues>
        3.2462161034345627e-02 -4.6437594294548035e-01</leafValues></_>
    <_>
      <internalNodes>
        0 -1 181898 -2.4817525409162045e-03</internalNodes>
      <leafValues>
        3.8583338260650635e-01 -3.8333043456077576e-02</leafValues></_>
    <_>
      <internalNodes>
        0 -1 36449 -2.5898637250065804e-03</internalNodes>
      <leafValues>
        -1.2857455015182495e-01 1.1258386820554733e-01</leafValues></_>
    <_>
      <internalNodes>
        0 -1 49128 2.6470259763300419e-04</internalNodes>
      <leafValues>
        7.9418532550334930e-02 -1.8016920983791351e-01</leafValues></_>
    <_>
      <internalNodes>
        0 -1 170826 -5.6807231158018112e-04</internalNodes>
      <leafValues>
        2.5881439447402954e-01 -5.8804426342248917e-02</leafValues></_>
    <_>
      <internalNodes>
        0 -1 185677 1.5430077910423279e-02</internalNodes>
      <leafValues>
        3.9530146867036819e-02 -3.9963144063949585e-01</leafValues></_>
    <_>
      <internalNodes>
        0 -1 128308 -9.2896185815334320e-03</internalNodes>
      <leafValues>
        2.5172957777976990e-01 -5.6297615170478821e-02</leafValues></_>
    <_>
      <internalNodes>
        0 -1 159706 -3.1567015685141087e-04</internalNodes>
      <leafValues>
        1.3312639296054840e-01 -1.0896409302949905e-01</leafValues></_>
    <_>
      <internalNodes>
        0 -1 181659 -1.6761500388383865e-02</internalNodes>
      <leafValues>
        -2.5504720211029053e-01 5.8956298977136612e-02</leafValues></_>
    <_>
      <internalNodes>
        0 -1 27371 -5.6454125791788101e-02</internalNodes>
      <leafValues>
        -1.9711136817932129e-01 8.4449261426925659e-02</leafValues></_>
    <_>
      <internalNodes>
        0 -1 187055 -3.1227227300405502e-03</internalNodes>
      <leafValues>
        1.8334434926509857e-01 -8.9984998106956482e-02</leafValues></_>
    <_>
      <internalNodes>
        0 -1 118738 6.3539226539433002e-03</internalNodes>
      <leafValues>
        4.0012460201978683e-02 -3.5001894831657410e-01</leafValues></_>
    <_>
      <internalNodes>
        0 -1 53458 -1.0405306704342365e-02</internalNodes>
      <leafValues>
        2.0461858808994293e-01 -7.4718572199344635e-02</leafValues></_>
    <_>
      <internalNodes>
        0 -1 7288 -9.4346985220909119e-02</internalNodes>
      <leafValues>
        -7.0904225111007690e-01 2.6348439976572990e-02</leafValues></_>
    <_>
      <internalNodes>
        0 -1 152415 -8.5784209659323096e-05</internalNodes>
      <leafValues>
        -1.4400367438793182e-01 1.0699062794446945e-01</leafValues></_>
    <_>
      <internalNodes>
        0 -1 183388 2.2038454189896584e-02</internalNodes>
      <leafValues>
        -9.9681995809078217e-02 1.5616422891616821e-01</leafValues></_>
    <_>
      <internalNodes>
        0 -1 176799 4.4089341536164284e-03</internalNodes>
      <leafValues>
        -4.0873043239116669e-02 3.6581894755363464e-01</leafValues></_></weakClassifiers></stage4>
</opencv_storage>
