<?xml version="1.0"?>
<opencv_storage>
<stage0>
  <maxWeakCount>45</maxWeakCount>
  <stageThreshold>-1.1209964752197266e+00</stageThreshold>
  <weakClassifiers>
    <_>
      <internalNodes>
        0 -1 137013 -4.3128795921802521e-02</internalNodes>
      <leafValues>
        4.7727271914482117e-01 -2.9590016603469849e-01</leafValues></_>
    <_>
      <internalNodes>
        0 -1 158417 8.8358446955680847e-03</internalNodes>
      <leafValues>
        -1.6178050637245178e-01 3.0674031376838684e-01</leafValues></_>
    <_>
      <internalNodes>
        0 -1 158835 -8.3979163318872452e-03</internalNodes>
      <leafValues>
        3.9277616143226624e-01 -7.5181297957897186e-02</leafValues></_>
    <_>
      <internalNodes>
        0 -1 19038 -3.6853677011094987e-04</internalNodes>
      <leafValues>
        -2.9652750492095947e-01 1.0583285987377167e-01</leafValues></_>
    <_>
      <internalNodes>
        0 -1 35780 1.1068488238379359e-03</internalNodes>
      <leafValues>
        1.3372606039047241e-01 -2.4817790091037750e-01</leafValues></_>
    <_>
      <internalNodes>
        0 -1 186802 9.9648442119359970e-03</internalNodes>
      <leafValues>
        -9.0571783483028412e-02 3.1358143687248230e-01</leafValues></_>
    <_>
      <internalNodes>
        0 -1 53497 3.7906777113676071e-02</internalNodes>
      <leafValues>
        -8.3930701017379761e-02 3.8099038600921631e-01</leafValues></_>
    <_>
      <internalNodes>
        0 -1 184618 -8.6683891713619232e-03</internalNodes>
      <leafValues>
        4.1880765557289124e-01 -6.2823042273521423e-02</leafValues></_>
    <_>
      <internalNodes>
        0 -1 190118 9.5356646925210953e-03</internalNodes>
      <leafValues>
        -8.5534520447254181e-02 2.8836357593536377e-01</leafValues></_>
    <_>
      <internalNodes>
        0 -1 61407 -4.6575851738452911e-02</internalNodes>
      <leafValues>
        4.6134588122367859e-01 -6.6794522106647491e-02</leafValues></_>
    <_>
      <internalNodes>
        0 -1 60849 7.8168228268623352e-02</internalNodes>
      <leafValues>
        -7.4878104031085968e-02 3.6900398135185242e-01</leafValues></_>
    <_>
      <internalNodes>
        0 -1 27831 -5.3326121997088194e-04</internalNodes>
      <leafValues>
        -2.3349972069263458e-01 1.2968255579471588e-01</leafValues></_>
    <_>
      <internalNodes>
        0 -1 36643 2.0074944943189621e-02</internalNodes>
      <leafValues>
        -8.4717907011508942e-02 4.3377548456192017e-01</leafValues></_>
    <_>
      <internalNodes>
        0 -1 166063 2.6469672098755836e-02</internalNodes>
      <leafValues>
        -4.7038309276103973e-02 4.6315386891365051e-01</leafValues></_>
    <_>
      <internalNodes>
        0 -1 1144 -6.2830891693010926e-05</internalNodes>
      <leafValues>
        -2.2793567180633545e-01 1.1803819984197617e-01</leafValues></_>
    <_>
      <internalNodes>
        0 -1 159182 4.8990850336849689e-03</internalNodes>
      <leafValues>
        -1.2332264333963394e-01 2.5332173705101013e-01</leafValues></_>
    <_>
      <internalNodes>
        0 -1 42555 -3.5273228422738612e-04</internalNodes>
      <leafValues>
        -2.4939663708209991e-01 1.2138453871011734e-01</leafValues></_>
    <_>
      <internalNodes>
        0 -1 43487 -1.1639434844255447e-02</internalNodes>
      <leafValues>
        -3.1105199456214905e-01 7.4670292437076569e-02</leafValues></_>
    <_>
      <internalNodes>
        0 -1 172429 2.6698617264628410e-02</internalNodes>
      <leafValues>
        -7.3760807514190674e-02 3.1756967306137085e-01</leafValues></_>
    <_>
      <internalNodes>
        0 -1 87967 1.9514313898980618e-03</internalNodes>
      <leafValues>
        -9.1389946639537811e-02 2.3999518156051636e-01</leafValues></_>
    <_>
      <internalNodes>
        0 -1 183037 -1.2599452747963369e-04</internalNodes>
      <leafValues>
        -2.3139485716819763e-01 1.0026551783084869e-01</leafValues></_>
    <_>
      <internalNodes>
        0 -1 28869 -1.1830626055598259e-02</internalNodes>
      <leafValues>
        -6.0801303386688232e-01 3.7437092512845993e-02</leafValues></_>
    <_>
      <internalNodes>
        0 -1 11994 1.1381619609892368e-02</internalNodes>
      <leafValues>
        -1.0680261999368668e-01 2.1032825112342834e-01</leafValues></_>
    <_>
      <internalNodes>
        0 -1 56203 -1.0617430089041591e-03</internalNodes>
      <leafValues>
        -1.7767463624477386e-01 1.3587708771228790e-01</leafValues></_>
    <_>
      <internalNodes>
        0 -1 31213 -4.6983778476715088e-01</internalNodes>
      <leafValues>
        -5.7957881689071655e-01 3.9459787309169769e-02</leafValues></_>
    <_>
      <internalNodes>
        0 -1 185188 2.3882025852799416e-03</internalNodes>
      <leafValues>
        -3.2199565321207047e-02 8.1371599435806274e-01</leafValues></_>
    <_>
      <internalNodes>
        0 -1 1194 -9.1770582366734743e-04</internalNodes>
      <leafValues>
        -2.1557551622390747e-01 1.0113379359245300e-01</leafValues></_>
    <_>
      <internalNodes>
        0 -1 144879 8.7773036211729050e-03</internalNodes>
      <leafValues>
        -2.8088165447115898e-02 7.6322829723358154e-01</leafValues></_>
    <_>
      <internalNodes>
        0 -1 190612 -4.3681077659130096e-03</internalNodes>
      <leafValues>
        2.5627866387367249e-01 -8.2276992499828339e-02</leafValues></_>
    <_>
      <internalNodes>
        0 -1 139661 5.5842395871877670e-02</internalNodes>
      <leafValues>
        -6.3431032001972198e-02 3.9193496108055115e-01</leafValues></_>
    <_>
      <internalNodes>
        0 -1 158275 -2.7580559253692627e-03</internalNodes>
      <leafValues>
        -3.0914553999900818e-01 8.2057245075702667e-02</leafValues></_>
    <_>
      <internalNodes>
        0 -1 190735 -1.6354916151612997e-03</internalNodes>
      <leafValues>
        5.3418344259262085e-01 -4.6373382210731506e-02</leafValues></_>
    <_>
      <internalNodes>
        0 -1 160273 -1.6664717986714095e-04</internalNodes>
      <leafValues>
        -1.6286800801753998e-01 1.4733901619911194e-01</leafValues></_>
    <_>
      <internalNodes>
        0 -1 102398 -9.6017145551741123e-05</internalNodes>
      <leafValues>
        -1.9834509491920471e-01 1.2139263004064560e-01</leafValues></_>
    <_>
      <internalNodes>
        0 -1 124373 -6.9269211962819099e-03</internalNodes>
      <leafValues>
        6.0042876005172729e-01 -3.7123288959264755e-02</leafValues></_>
    <_>
      <internalNodes>
        0 -1 43278 1.2145099043846130e-01</internalNodes>
      <leafValues>
        6.1300728470087051e-02 -4.1419684886932373e-01</leafValues></_>
    <_>
      <internalNodes>
        0 -1 6220 1.8275110051035881e-04</internalNodes>
      <leafValues>
        9.9289834499359131e-02 -2.4573434889316559e-01</leafValues></_>
    <_>
      <internalNodes>
        0 -1 89768 -5.1139727234840393e-02</internalNodes>
      <leafValues>
        5.5479329824447632e-01 -4.4576875865459442e-02</leafValues></_>
    <_>
      <internalNodes>
        0 -1 189415 2.3409274872392416e-03</internalNodes>
      <leafValues>
        6.2613911926746368e-02 -3.8953417539596558e-01</leafValues></_>
    <_>
      <internalNodes>
        0 -1 127501 -7.0286821573972702e-03</internalNodes>
      <leafValues>
        2.7058386802673340e-01 -9.8852567374706268e-02</leafValues></_>
    <_>
      <internalNodes>
        0 -1 170866 -1.8290386651642621e-04</internalNodes>
      <leafValues>
        2.1107614040374756e-01 -1.1026445031166077e-01</leafValues></_>
    <_>
      <internalNodes>
        0 -1 93196 2.7546295896172523e-02</internalNodes>
      <leafValues>
        -4.1466750204563141e-02 5.1799243688583374e-01</leafValues></_>
    <_>
      <internalNodes>
        0 -1 37644 7.1577616035938263e-03</internalNodes>
      <leafValues>
        4.4083654880523682e-02 -5.9183108806610107e-01</leafValues></_>
    <_>
      <internalNodes>
        0 -1 8754 -2.6485813781619072e-02</internalNodes>
      <leafValues>
        7.6884782314300537e-01 -3.6758571863174438e-02</leafValues></_>
    <_>
      <internalNodes>
        0 -1 121601 -1.8404424190521240e-02</internalNodes>
      <leafValues>
        5.4409873485565186e-01 -3.5065658390522003e-02</leafValues></_></weakClassifiers></stage0>
</opencv_storage>
