<?xml version="1.0"?>
<opencv_storage>
<stage1>
  <maxWeakCount>63</maxWeakCount>
  <stageThreshold>-1.0207692384719849e+00</stageThreshold>
  <weakClassifiers>
    <_>
      <internalNodes>
        0 -1 8146 9.1784622054547071e-04</internalNodes>
      <leafValues>
        -1.4087760448455811e-01 -4.8837208747863770e-01</leafValues></_>
    <_>
      <internalNodes>
        0 -1 57855 -1.6491134010720998e-04</internalNodes>
      <leafValues>
        -2.4479460716247559e-01 8.8241152465343475e-02</leafValues></_>
    <_>
      <internalNodes>
        0 -1 8091 -3.2122625270858407e-04</internalNodes>
      <leafValues>
        -1.7870433628559113e-01 1.6299936175346375e-01</leafValues></_>
    <_>
      <internalNodes>
        0 -1 136690 -1.6153650358319283e-02</internalNodes>
      <leafValues>
        2.4115957319736481e-01 -1.3416324555873871e-01</leafValues></_>
    <_>
      <internalNodes>
        0 -1 79433 -4.3438240885734558e-02</internalNodes>
      <leafValues>
        4.5137435197830200e-01 -1.8925732001662254e-02</leafValues></_>
    <_>
      <internalNodes>
        0 -1 69408 -2.8265087166801095e-04</internalNodes>
      <leafValues>
        -1.9291596114635468e-01 1.0668378323316574e-01</leafValues></_>
    <_>
      <internalNodes>
        0 -1 93199 -8.7845139205455780e-03</internalNodes>
      <leafValues>
        3.2124978303909302e-01 -5.6676365435123444e-02</leafValues></_>
    <_>
      <internalNodes>
        0 -1 617 9.0779811143875122e-02</internalNodes>
      <leafValues>
        -7.9260692000389099e-02 3.0071192979812622e-01</leafValues></_>
    <_>
      <internalNodes>
        0 -1 15599 -8.8249258697032928e-03</internalNodes>
      <leafValues>
        -2.5540599226951599e-01 9.5687724649906158e-02</leafValues></_>
    <_>
      <internalNodes>
        0 -1 43498 2.6366848498582840e-02</internalNodes>
      <leafValues>
        -7.9010792076587677e-02 3.0259832739830017e-01</leafValues></_>
    <_>
      <internalNodes>
        0 -1 133344 1.0420777834951878e-02</internalNodes>
      <leafValues>
        -9.9316947162151337e-02 1.9280229508876801e-01</leafValues></_>
    <_>
      <internalNodes>
        0 -1 94354 8.6637324420735240e-04</internalNodes>
      <leafValues>
        1.0424418002367020e-01 -1.8906350433826447e-01</leafValues></_>
    <_>
      <internalNodes>
        0 -1 186985 2.0266999490559101e-03</internalNodes>
      <leafValues>
        -8.7173797190189362e-02 2.2811083495616913e-01</leafValues></_>
    <_>
      <internalNodes>
        0 -1 190232 -7.2474787011742592e-03</internalNodes>
      <leafValues>
        4.2380687594413757e-01 -4.4400557875633240e-02</leafValues></_>
    <_>
      <internalNodes>
        0 -1 119011 -8.1399374175816774e-04</internalNodes>
      <leafValues>
        -1.8670289218425751e-01 9.7094058990478516e-02</leafValues></_>
    <_>
      <internalNodes>
        0 -1 71887 1.7478338850196451e-04</internalNodes>
      <leafValues>
        9.5606938004493713e-02 -1.9555170834064484e-01</leafValues></_>
    <_>
      <internalNodes>
        0 -1 102156 -1.2883774470537901e-03</internalNodes>
      <leafValues>
        2.6612102985382080e-01 -7.4402555823326111e-02</leafValues></_>
    <_>
      <internalNodes>
        0 -1 1439 -4.1303969919681549e-02</internalNodes>
      <leafValues>
        2.7311959862709045e-01 -7.2237536311149597e-02</leafValues></_>
    <_>
      <internalNodes>
        0 -1 12833 1.3017743185628206e-04</internalNodes>
      <leafValues>
        1.0047899931669235e-01 -2.2365292906761169e-01</leafValues></_>
    <_>
      <internalNodes>
        0 -1 88521 -8.3155594766139984e-03</internalNodes>
      <leafValues>
        -4.3008208274841309e-01 3.5723466426134109e-02</leafValues></_>
    <_>
      <internalNodes>
        0 -1 190687 1.0077148675918579e-02</internalNodes>
      <leafValues>
        -5.9854730963706970e-02 3.0074244737625122e-01</leafValues></_>
    <_>
      <internalNodes>
        0 -1 9352 -1.5597906708717346e-01</internalNodes>
      <leafValues>
        -9.5602095127105713e-01 1.9406527280807495e-02</leafValues></_>
    <_>
      <internalNodes>
        0 -1 165134 6.7190774716436863e-03</internalNodes>
      <leafValues>
        1.7504706978797913e-02 -7.1000915765762329e-01</leafValues></_>
    <_>
      <internalNodes>
        0 -1 83538 6.2197148799896240e-02</internalNodes>
      <leafValues>
        -7.2727322578430176e-02 2.5298365950584412e-01</leafValues></_>
    <_>
      <internalNodes>
        0 -1 182256 -1.9818842411041260e-02</internalNodes>
      <leafValues>
        4.5116892457008362e-01 -3.4088771790266037e-02</leafValues></_>
    <_>
      <internalNodes>
        0 -1 140983 4.6663191169500351e-03</internalNodes>
      <leafValues>
        1.3167266547679901e-01 -1.3058559596538544e-01</leafValues></_>
    <_>
      <internalNodes>
        0 -1 168196 3.7019846495240927e-03</internalNodes>
      <leafValues>
        -3.8933750241994858e-02 5.1348161697387695e-01</leafValues></_>
    <_>
      <internalNodes>
        0 -1 6231 -1.7580194980837405e-04</internalNodes>
      <leafValues>
        -1.6491694748401642e-01 9.9995061755180359e-02</leafValues></_>
    <_>
      <internalNodes>
        0 -1 55050 -2.0271562039852142e-02</internalNodes>
      <leafValues>
        2.5859591364860535e-01 -6.5420560538768768e-02</leafValues></_>
    <_>
      <internalNodes>
        0 -1 142248 -2.6439765468239784e-02</internalNodes>
      <leafValues>
        -6.1957317590713501e-01 2.7705052867531776e-02</leafValues></_>
    <_>
      <internalNodes>
        0 -1 70227 -1.5817403618711978e-04</internalNodes>
      <leafValues>
        -1.8233266472816467e-01 8.9137479662895203e-02</leafValues></_>
    <_>
      <internalNodes>
        0 -1 118159 -3.2569751143455505e-02</internalNodes>
      <leafValues>
        1.9279478490352631e-01 -9.6620149910449982e-02</leafValues></_>
    <_>
      <internalNodes>
        0 -1 68332 3.2215740066021681e-04</internalNodes>
      <leafValues>
        1.0230679810047150e-01 -1.8258032202720642e-01</leafValues></_>
    <_>
      <internalNodes>
        0 -1 100220 8.1198895350098610e-04</internalNodes>
      <leafValues>
        -1.2293300032615662e-01 1.5488976240158081e-01</leafValues></_>
    <_>
      <internalNodes>
        0 -1 289 2.8067674487829208e-02</internalNodes>
      <leafValues>
        -6.5500728785991669e-02 2.5344291329383850e-01</leafValues></_>
    <_>
      <internalNodes>
        0 -1 190729 -5.0010654376819730e-04</internalNodes>
      <leafValues>
        1.7155146598815918e-01 -9.8372749984264374e-02</leafValues></_>
    <_>
      <internalNodes>
        0 -1 14565 1.2009376659989357e-03</internalNodes>
      <leafValues>
        5.7978708297014236e-02 -2.8179979324340820e-01</leafValues></_>
    <_>
      <internalNodes>
        0 -1 145885 1.8575879512354732e-03</internalNodes>
      <leafValues>
        -7.8737445175647736e-02 2.1711152791976929e-01</leafValues></_>
    <_>
      <internalNodes>
        0 -1 1185 -2.5761318393051624e-03</internalNodes>
      <leafValues>
        -1.8130381405353546e-01 1.0088895261287689e-01</leafValues></_>
    <_>
      <internalNodes>
        0 -1 160957 5.1064454019069672e-02</internalNodes>
      <leafValues>
        2.3822965100407600e-02 -6.8095076084136963e-01</leafValues></_>
    <_>
      <internalNodes>
        0 -1 63057 2.3299425840377808e-02</internalNodes>
      <leafValues>
        -7.1480937302112579e-02 2.6599729061126709e-01</leafValues></_>
    <_>
      <internalNodes>
        0 -1 12841 1.9771757069975138e-04</internalNodes>
      <leafValues>
        1.0391049087047577e-01 -1.8312825262546539e-01</leafValues></_>
    <_>
      <internalNodes>
        0 -1 14682 1.6829773085191846e-04</internalNodes>
      <leafValues>
        9.3418776988983154e-02 -1.8044194579124451e-01</leafValues></_>
    <_>
      <internalNodes>
        0 -1 14387 1.8648108234629035e-03</internalNodes>
      <leafValues>
        -5.7943534106016159e-02 2.9115039110183716e-01</leafValues></_>
    <_>
      <internalNodes>
        0 -1 160464 -2.0136434584856033e-02</internalNodes>
      <leafValues>
        -4.4424816966056824e-01 3.7677031010389328e-02</leafValues></_>
    <_>
      <internalNodes>
        0 -1 59662 -1.0454813018441200e-02</internalNodes>
      <leafValues>
        -3.6613684892654419e-01 4.3775781989097595e-02</leafValues></_>
    <_>
      <internalNodes>
        0 -1 83561 -7.7661577961407602e-05</internalNodes>
      <leafValues>
        -1.5887059271335602e-01 1.0802612453699112e-01</leafValues></_>
    <_>
      <internalNodes>
        0 -1 153574 -5.4512114729732275e-04</internalNodes>
      <leafValues>
        1.8417277932167053e-01 -9.1193422675132751e-02</leafValues></_>
    <_>
      <internalNodes>
        0 -1 141059 -2.2205328568816185e-02</internalNodes>
      <leafValues>
        -7.7383232116699219e-01 2.4800496175885201e-02</leafValues></_>
    <_>
      <internalNodes>
        0 -1 74156 2.2625431302003562e-04</internalNodes>
      <leafValues>
        8.9149020612239838e-02 -1.8452036380767822e-01</leafValues></_>
    <_>
      <internalNodes>
        0 -1 46345 -2.0631293952465057e-01</internalNodes>
      <leafValues>
        4.9472984671592712e-01 -3.2460164278745651e-02</leafValues></_>
    <_>
      <internalNodes>
        0 -1 144844 -1.9833981059491634e-03</internalNodes>
      <leafValues>
        2.9674124717712402e-01 -5.5718783289194107e-02</leafValues></_>
    <_>
      <internalNodes>
        0 -1 9170 -2.0348939299583435e-01</internalNodes>
      <leafValues>
        -7.3646330833435059e-01 2.6140848174691200e-02</leafValues></_>
    <_>
      <internalNodes>
        0 -1 138250 1.1248734779655933e-02</internalNodes>
      <leafValues>
        1.8169062212109566e-02 -6.7422544956207275e-01</leafValues></_>
    <_>
      <internalNodes>
        0 -1 90944 -2.6902325917035341e-03</internalNodes>
      <leafValues>
        2.0633947849273682e-01 -8.2794494926929474e-02</leafValues></_>
    <_>
      <internalNodes>
        0 -1 11373 1.9035860896110535e-04</internalNodes>
      <leafValues>
        9.9271371960639954e-02 -1.5680032968521118e-01</leafValues></_>
    <_>
      <internalNodes>
        0 -1 14755 5.5837426334619522e-03</internalNodes>
      <leafValues>
        -4.2668350040912628e-02 4.1470491886138916e-01</leafValues></_>
    <_>
      <internalNodes>
        0 -1 138791 -1.6347388736903667e-04</internalNodes>
      <leafValues>
        -1.9192609190940857e-01 9.1443181037902832e-02</leafValues></_>
    <_>
      <internalNodes>
        0 -1 124787 1.4241070020943880e-03</internalNodes>
      <leafValues>
        -9.7998514771461487e-02 1.7612518370151520e-01</leafValues></_>
    <_>
      <internalNodes>
        0 -1 139242 -6.4858995378017426e-02</internalNodes>
      <leafValues>
        3.0817273259162903e-01 -6.0048483312129974e-02</leafValues></_>
    <_>
      <internalNodes>
        0 -1 168132 -1.1658972129225731e-02</internalNodes>
      <leafValues>
        -4.3598544597625732e-01 4.6411480754613876e-02</leafValues></_>
    <_>
      <internalNodes>
        0 -1 159525 -5.0844857469201088e-04</internalNodes>
      <leafValues>
        -1.9822412729263306e-01 8.1575788557529449e-02</leafValues></_>
    <_>
      <internalNodes>
        0 -1 185550 1.9577448256313801e-03</internalNodes>
      <leafValues>
        -5.4461274296045303e-02 3.0816018581390381e-01</leafValues></_></weakClassifiers></stage1>
</opencv_storage>
