<?xml version="1.0"?>
<opencv_storage>
<stage3>
  <maxWeakCount>69</maxWeakCount>
  <stageThreshold>-9.5385426282882690e-01</stageThreshold>
  <weakClassifiers>
    <_>
      <internalNodes>
        0 -1 40123 1.8641186761669815e-04</internalNodes>
      <leafValues>
        -1.4018692076206207e-01 -4.3558281660079956e-01</leafValues></_>
    <_>
      <internalNodes>
        0 -1 22944 3.2389895059168339e-03</internalNodes>
      <leafValues>
        5.3812120109796524e-02 -3.3659371733665466e-01</leafValues></_>
    <_>
      <internalNodes>
        0 -1 36838 -2.2903783246874809e-03</internalNodes>
      <leafValues>
        -2.6880854368209839e-01 9.5338754355907440e-02</leafValues></_>
    <_>
      <internalNodes>
        0 -1 26494 -4.1806715307757258e-04</internalNodes>
      <leafValues>
        -2.1044319868087769e-01 7.8912526369094849e-02</leafValues></_>
    <_>
      <internalNodes>
        0 -1 184679 -9.4937824178487062e-04</internalNodes>
      <leafValues>
        3.4311285614967346e-01 -4.8178017139434814e-02</leafValues></_>
    <_>
      <internalNodes>
        0 -1 135508 -1.2817999348044395e-02</internalNodes>
      <leafValues>
        3.5778728127479553e-01 -4.9555167555809021e-02</leafValues></_>
    <_>
      <internalNodes>
        0 -1 114674 -2.9947705566883087e-02</internalNodes>
      <leafValues>
        2.2165836393833160e-01 -7.3224715888500214e-02</leafValues></_>
    <_>
      <internalNodes>
        0 -1 14375 1.4889021986164153e-04</internalNodes>
      <leafValues>
        8.2724913954734802e-02 -1.8006968498229980e-01</leafValues></_>
    <_>
      <internalNodes>
        0 -1 164598 -8.6177140474319458e-03</internalNodes>
      <leafValues>
        2.2645591199398041e-01 -7.2038702666759491e-02</leafValues></_>
    <_>
      <internalNodes>
        0 -1 68472 -2.5077018886804581e-02</internalNodes>
      <leafValues>
        -6.0524731874465942e-01 3.4647349268198013e-02</leafValues></_>
    <_>
      <internalNodes>
        0 -1 181032 -3.0201744288206100e-02</internalNodes>
      <leafValues>
        4.9878785014152527e-01 -3.2883949577808380e-02</leafValues></_>
    <_>
      <internalNodes>
        0 -1 68973 5.8519437909126282e-02</internalNodes>
      <leafValues>
        -5.4199576377868652e-02 2.7582934498786926e-01</leafValues></_>
    <_>
      <internalNodes>
        0 -1 20599 9.9086691625416279e-04</internalNodes>
      <leafValues>
        9.7297333180904388e-02 -1.6721077263355255e-01</leafValues></_>
    <_>
      <internalNodes>
        0 -1 182525 2.9680963605642319e-02</internalNodes>
      <leafValues>
        -2.8223821893334389e-02 5.3281062841415405e-01</leafValues></_>
    <_>
      <internalNodes>
        0 -1 22643 1.9880842417478561e-02</internalNodes>
      <leafValues>
        -3.8446839898824692e-02 4.0544715523719788e-01</leafValues></_>
    <_>
      <internalNodes>
        0 -1 2276 -2.0582872093655169e-04</internalNodes>
      <leafValues>
        -1.5573057532310486e-01 9.0293355286121368e-02</leafValues></_>
    <_>
      <internalNodes>
        0 -1 188914 1.1443869210779667e-02</internalNodes>
      <leafValues>
        -8.7434224784374237e-02 1.6404744982719421e-01</leafValues></_>
    <_>
      <internalNodes>
        0 -1 134155 -4.3546155095100403e-02</internalNodes>
      <leafValues>
        -6.9485187530517578e-01 1.8753465265035629e-02</leafValues></_>
    <_>
      <internalNodes>
        0 -1 100314 1.9528768956661224e-02</internalNodes>
      <leafValues>
        -6.9550372660160065e-02 2.1857810020446777e-01</leafValues></_>
    <_>
      <internalNodes>
        0 -1 111812 -2.5957973673939705e-02</internalNodes>
      <leafValues>
        2.2712691128253937e-01 -8.0182224512100220e-02</leafValues></_>
    <_>
      <internalNodes>
        0 -1 154199 -1.7483532428741455e-02</internalNodes>
      <leafValues>
        -2.3171947896480560e-01 7.4285827577114105e-02</leafValues></_>
    <_>
      <internalNodes>
        0 -1 183058 1.0712491348385811e-02</internalNodes>
      <leafValues>
        -5.5612459778785706e-02 2.5882440805435181e-01</leafValues></_>
    <_>
      <internalNodes>
        0 -1 19976 -4.3761701817857102e-05</internalNodes>
      <leafValues>
        -1.7688906192779541e-01 8.5184276103973389e-02</leafValues></_>
    <_>
      <internalNodes>
        0 -1 176273 -2.9316246509552002e-03</internalNodes>
      <leafValues>
        2.5154107809066772e-01 -6.2080595642328262e-02</leafValues></_>
    <_>
      <internalNodes>
        0 -1 180610 -1.2691982556134462e-03</internalNodes>
      <leafValues>
        -2.3399223387241364e-01 6.0234077274799347e-02</leafValues></_>
    <_>
      <internalNodes>
        0 -1 149360 1.8454471137374640e-03</internalNodes>
      <leafValues>
        -2.9914099723100662e-02 5.0393307209014893e-01</leafValues></_>
    <_>
      <internalNodes>
        0 -1 106844 -8.5888579487800598e-03</internalNodes>
      <leafValues>
        -5.7533556222915649e-01 2.6163592934608459e-02</leafValues></_>
    <_>
      <internalNodes>
        0 -1 48610 -1.5742208342999220e-03</internalNodes>
      <leafValues>
        1.8332257866859436e-01 -7.6659984886646271e-02</leafValues></_>
    <_>
      <internalNodes>
        0 -1 15274 3.5704482346773148e-02</internalNodes>
      <leafValues>
        4.5634727925062180e-02 -3.2553935050964355e-01</leafValues></_>
    <_>
      <internalNodes>
        0 -1 1147 -1.0462805221322924e-04</internalNodes>
      <leafValues>
        -1.7695216834545135e-01 8.2433275878429413e-02</leafValues></_>
    <_>
      <internalNodes>
        0 -1 132427 -5.0721608567982912e-04</internalNodes>
      <leafValues>
        -1.5725140273571014e-01 8.9541099965572357e-02</leafValues></_>
    <_>
      <internalNodes>
        0 -1 170371 -1.1021688114851713e-03</internalNodes>
      <leafValues>
        1.8048995733261108e-01 -7.3657460510730743e-02</leafValues></_>
    <_>
      <internalNodes>
        0 -1 144257 -1.8136412836611271e-03</internalNodes>
      <leafValues>
        -6.4592677354812622e-01 1.9942620769143105e-02</leafValues></_>
    <_>
      <internalNodes>
        0 -1 171265 -4.6587698161602020e-03</internalNodes>
      <leafValues>
        3.8503593206405640e-01 -3.8893777877092361e-02</leafValues></_>
    <_>
      <internalNodes>
        0 -1 7093 1.8455542158335447e-03</internalNodes>
      <leafValues>
        6.3847325742244720e-02 -2.1380083262920380e-01</leafValues></_>
    <_>
      <internalNodes>
        0 -1 138459 -3.0354358023032546e-04</internalNodes>
      <leafValues>
        1.9659648835659027e-01 -7.2730980813503265e-02</leafValues></_>
    <_>
      <internalNodes>
        0 -1 111706 6.9272974506020546e-03</internalNodes>
      <leafValues>
        3.9100129157304764e-02 -3.3885788917541504e-01</leafValues></_>
    <_>
      <internalNodes>
        0 -1 145965 -1.1815309990197420e-03</internalNodes>
      <leafValues>
        -1.7369376122951508e-01 7.8087590634822845e-02</leafValues></_>
    <_>
      <internalNodes>
        0 -1 88398 5.2761109545826912e-03</internalNodes>
      <leafValues>
        -2.0675776526331902e-02 8.1896477937698364e-01</leafValues></_>
    <_>
      <internalNodes>
        0 -1 179481 2.0750984549522400e-02</internalNodes>
      <leafValues>
        2.9093557968735695e-02 -5.6988370418548584e-01</leafValues></_>
    <_>
      <internalNodes>
        0 -1 2995 -1.2553897500038147e-01</internalNodes>
      <leafValues>
        4.3305084109306335e-01 -3.6685913801193237e-02</leafValues></_>
    <_>
      <internalNodes>
        0 -1 28951 1.4187991619110107e-02</internalNodes>
      <leafValues>
        1.2129670009016991e-02 -1.</leafValues></_>
    <_>
      <internalNodes>
        0 -1 187789 2.6523042470216751e-03</internalNodes>
      <leafValues>
        -5.7833027094602585e-02 2.6105564832687378e-01</leafValues></_>
    <_>
      <internalNodes>
        0 -1 168553 -1.2271136045455933e-02</internalNodes>
      <leafValues>
        -5.2301985025405884e-01 2.9121842235326767e-02</leafValues></_>
    <_>
      <internalNodes>
        0 -1 137709 -4.8772234003990889e-04</internalNodes>
      <leafValues>
        2.2235038876533508e-01 -6.4916580915451050e-02</leafValues></_>
    <_>
      <internalNodes>
        0 -1 63586 -1.8491849186830223e-04</internalNodes>
      <leafValues>
        -1.3442033529281616e-01 1.0530468821525574e-01</leafValues></_>
    <_>
      <internalNodes>
        0 -1 112151 -4.5584871259052306e-05</internalNodes>
      <leafValues>
        -1.5019363164901733e-01 9.1464146971702576e-02</leafValues></_>
    <_>
      <internalNodes>
        0 -1 40565 -3.7671878089895472e-05</internalNodes>
      <leafValues>
        -1.2826123833656311e-01 1.0654141008853912e-01</leafValues></_>
    <_>
      <internalNodes>
        0 -1 12935 -3.6015875637531281e-02</internalNodes>
      <leafValues>
        -5.7371240854263306e-01 2.5155266746878624e-02</leafValues></_>
    <_>
      <internalNodes>
        0 -1 159398 -1.1058072559535503e-03</internalNodes>
      <leafValues>
        2.2437506914138794e-01 -6.9470763206481934e-02</leafValues></_>
    <_>
      <internalNodes>
        0 -1 120474 -3.0830188188701868e-03</internalNodes>
      <leafValues>
        -2.3191216588020325e-01 6.2600992619991302e-02</leafValues></_>
    <_>
      <internalNodes>
        0 -1 14451 -4.7194067388772964e-02</internalNodes>
      <leafValues>
        2.5009283423423767e-01 -5.9213642030954361e-02</leafValues></_>
    <_>
      <internalNodes>
        0 -1 9653 4.1380919516086578e-02</internalNodes>
      <leafValues>
        -5.6756004691123962e-02 2.8426274657249451e-01</leafValues></_>
    <_>
      <internalNodes>
        0 -1 19120 3.6652304232120514e-02</internalNodes>
      <leafValues>
        2.8909396380186081e-02 -5.5426919460296631e-01</leafValues></_>
    <_>
      <internalNodes>
        0 -1 189236 -1.5595054719597101e-03</internalNodes>
      <leafValues>
        4.4825828075408936e-01 -3.4328803420066833e-02</leafValues></_>
    <_>
      <internalNodes>
        0 -1 155381 -4.7927489504218102e-04</internalNodes>
      <leafValues>
        -2.3979812860488892e-01 6.2086056917905807e-02</leafValues></_>
    <_>
      <internalNodes>
        0 -1 49201 -1.2842002324759960e-03</internalNodes>
      <leafValues>
        1.5238502621650696e-01 -9.7605176270008087e-02</leafValues></_>
    <_>
      <internalNodes>
        0 -1 8107 -3.2376515446230769e-04</internalNodes>
      <leafValues>
        -1.3912750780582428e-01 1.2381742894649506e-01</leafValues></_>
    <_>
      <internalNodes>
        0 -1 175424 -4.5748786069452763e-03</internalNodes>
      <leafValues>
        -4.9245470762252808e-01 3.3296979963779449e-02</leafValues></_>
    <_>
      <internalNodes>
        0 -1 184293 -5.1067480817437172e-03</internalNodes>
      <leafValues>
        1.9557438790798187e-01 -7.4285909533500671e-02</leafValues></_>
    <_>
      <internalNodes>
        0 -1 41501 -4.3838441371917725e-02</internalNodes>
      <leafValues>
        8.3241719007492065e-01 -2.1329335868358612e-02</leafValues></_>
    <_>
      <internalNodes>
        0 -1 38089 -6.5012052655220032e-02</internalNodes>
      <leafValues>
        -6.0078370571136475e-01 2.9594754800200462e-02</leafValues></_>
    <_>
      <internalNodes>
        0 -1 175434 1.3218878302723169e-03</internalNodes>
      <leafValues>
        6.6401116549968719e-02 -2.0992770791053772e-01</leafValues></_>
    <_>
      <internalNodes>
        0 -1 190731 1.1893021292053163e-04</internalNodes>
      <leafValues>
        -1.0304735600948334e-01 1.4038395881652832e-01</leafValues></_>
    <_>
      <internalNodes>
        0 -1 167566 -1.4178379205986857e-03</internalNodes>
      <leafValues>
        4.7178751230239868e-01 -3.5027008503675461e-02</leafValues></_>
    <_>
      <internalNodes>
        0 -1 79152 2.1584201604127884e-03</internalNodes>
      <leafValues>
        6.2444172799587250e-02 -2.4968607723712921e-01</leafValues></_>
    <_>
      <internalNodes>
        0 -1 158628 -3.3296400215476751e-04</internalNodes>
      <leafValues>
        -1.3285186886787415e-01 1.0302723199129105e-01</leafValues></_>
    <_>
      <internalNodes>
        0 -1 52400 -6.5598366782069206e-03</internalNodes>
      <leafValues>
        3.0328589677810669e-01 -4.5420728623867035e-02</leafValues></_>
    <_>
      <internalNodes>
        0 -1 18101 2.4975661654025316e-04</internalNodes>
      <leafValues>
        7.3628827929496765e-02 -1.8612635135650635e-01</leafValues></_></weakClassifiers></stage3>
</opencv_storage>
