<?xml version="1.0"?>
<opencv_storage>
<stage2>
  <maxWeakCount>74</maxWeakCount>
  <stageThreshold>-9.9719798564910889e-01</stageThreshold>
  <weakClassifiers>
    <_>
      <internalNodes>
        0 -1 179229 7.2069317102432251e-03</internalNodes>
      <leafValues>
        -3.2742315530776978e-01 -3.5714287310838699e-02</leafValues></_>
    <_>
      <internalNodes>
        0 -1 25695 1.7605563998222351e-01</internalNodes>
      <leafValues>
        -7.1618840098381042e-02 3.1457206606864929e-01</leafValues></_>
    <_>
      <internalNodes>
        0 -1 173267 -3.9581909775733948e-02</internalNodes>
      <leafValues>
        3.5985973477363586e-01 -4.5293122529983521e-02</leafValues></_>
    <_>
      <internalNodes>
        0 -1 184162 1.9331023097038269e-02</internalNodes>
      <leafValues>
        2.3382313549518585e-02 -8.5506141185760498e-01</leafValues></_>
    <_>
      <internalNodes>
        0 -1 84512 -3.7333451211452484e-02</internalNodes>
      <leafValues>
        2.8874582052230835e-01 -5.5088121443986893e-02</leafValues></_>
    <_>
      <internalNodes>
        0 -1 484 3.5624873638153076e-01</internalNodes>
      <leafValues>
        1.6767861321568489e-02 -9.3876808881759644e-01</leafValues></_>
    <_>
      <internalNodes>
        0 -1 29336 -8.2453429058659822e-05</internalNodes>
      <leafValues>
        -1.5811869502067566e-01 1.0629676282405853e-01</leafValues></_>
    <_>
      <internalNodes>
        0 -1 85176 1.2847626581788063e-02</internalNodes>
      <leafValues>
        -6.4992696046829224e-02 2.6064300537109375e-01</leafValues></_>
    <_>
      <internalNodes>
        0 -1 33282 3.9959191344678402e-03</internalNodes>
      <leafValues>
        5.2815161645412445e-02 -3.1594663858413696e-01</leafValues></_>
    <_>
      <internalNodes>
        0 -1 186085 -6.4175697043538094e-03</internalNodes>
      <leafValues>
        -5.9918910264968872e-01 5.5468268692493439e-02</leafValues></_>
    <_>
      <internalNodes>
        0 -1 159152 -4.5423451811075211e-03</internalNodes>
      <leafValues>
        2.2054399549961090e-01 -9.2020280659198761e-02</leafValues></_>
    <_>
      <internalNodes>
        0 -1 33236 2.4163951165974140e-03</internalNodes>
      <leafValues>
        -2.3639563005417585e-03 6.7045581340789795e-01</leafValues></_>
    <_>
      <internalNodes>
        0 -1 88751 -1.6402311623096466e-02</internalNodes>
      <leafValues>
        -3.1583940982818604e-01 4.6247527003288269e-02</leafValues></_>
    <_>
      <internalNodes>
        0 -1 159298 4.5601800084114075e-03</internalNodes>
      <leafValues>
        -6.7260682582855225e-02 2.8015652298927307e-01</leafValues></_>
    <_>
      <internalNodes>
        0 -1 98876 -1.5619961777701974e-04</internalNodes>
      <leafValues>
        -2.1375764906406403e-01 9.3441210687160492e-02</leafValues></_>
    <_>
      <internalNodes>
        0 -1 185055 7.5963209383189678e-03</internalNodes>
      <leafValues>
        -4.4124182313680649e-02 3.2150435447692871e-01</leafValues></_>
    <_>
      <internalNodes>
        0 -1 183327 2.0574301481246948e-02</internalNodes>
      <leafValues>
        -3.8302924484014511e-02 4.7725373506546021e-01</leafValues></_>
    <_>
      <internalNodes>
        0 -1 8 -1.3016568846069276e-04</internalNodes>
      <leafValues>
        -1.6960412263870239e-01 9.4424746930599213e-02</leafValues></_>
    <_>
      <internalNodes>
        0 -1 12734 -1.0201810300350189e-01</internalNodes>
      <leafValues>
        -6.6082918643951416e-01 2.8341487050056458e-02</leafValues></_>
    <_>
      <internalNodes>
        0 -1 36618 1.1314365547150373e-03</internalNodes>
      <leafValues>
        6.1240341514348984e-02 -2.7594369649887085e-01</leafValues></_>
    <_>
      <internalNodes>
        0 -1 78725 1.2520793825387955e-03</internalNodes>
      <leafValues>
        -4.0870457887649536e-02 4.3757858872413635e-01</leafValues></_>
    <_>
      <internalNodes>
        0 -1 82007 -4.6835826651658863e-05</internalNodes>
      <leafValues>
        -1.5689246356487274e-01 1.1175429075956345e-01</leafValues></_>
    <_>
      <internalNodes>
        0 -1 112660 -5.6580023374408484e-04</internalNodes>
      <leafValues>
        -1.4945609867572784e-01 1.0814929753541946e-01</leafValues></_>
    <_>
      <internalNodes>
        0 -1 159838 1.5106495993677527e-04</internalNodes>
      <leafValues>
        1.0300752520561218e-01 -1.7875702679157257e-01</leafValues></_>
    <_>
      <internalNodes>
        0 -1 90800 -6.2061469070613384e-03</internalNodes>
      <leafValues>
        2.3418851196765900e-01 -7.2855584323406219e-02</leafValues></_>
    <_>
      <internalNodes>
        0 -1 190724 1.4874453190714121e-03</internalNodes>
      <leafValues>
        -6.8580590188503265e-02 2.4151571094989777e-01</leafValues></_>
    <_>
      <internalNodes>
        0 -1 21147 2.7793643996119499e-02</internalNodes>
      <leafValues>
        -4.4807974249124527e-02 3.9228183031082153e-01</leafValues></_>
    <_>
      <internalNodes>
        0 -1 52410 2.4677909910678864e-02</internalNodes>
      <leafValues>
        2.9231416061520576e-02 -6.2562459707260132e-01</leafValues></_>
    <_>
      <internalNodes>
        0 -1 68472 -2.6909718289971352e-03</internalNodes>
      <leafValues>
        -2.1223509311676025e-01 7.6556056737899780e-02</leafValues></_>
    <_>
      <internalNodes>
        0 -1 185423 1.7588887130841613e-03</internalNodes>
      <leafValues>
        5.1467742770910263e-02 -3.1605854630470276e-01</leafValues></_>
    <_>
      <internalNodes>
        0 -1 63270 2.1690358407795429e-03</internalNodes>
      <leafValues>
        -4.6482868492603302e-02 4.0298080444335938e-01</leafValues></_>
    <_>
      <internalNodes>
        0 -1 98743 -6.1647240072488785e-03</internalNodes>
      <leafValues>
        -1.5387855470180511e-01 1.1063147336244583e-01</leafValues></_>
    <_>
      <internalNodes>
        0 -1 138590 -2.0295658614486456e-03</internalNodes>
      <leafValues>
        1.7700812220573425e-01 -9.8236277699470520e-02</leafValues></_>
    <_>
      <internalNodes>
        0 -1 182671 5.8742985129356384e-03</internalNodes>
      <leafValues>
        3.2613884657621384e-02 -5.4175573587417603e-01</leafValues></_>
    <_>
      <internalNodes>
        0 -1 55702 -4.2532313615083694e-02</internalNodes>
      <leafValues>
        -7.2640436887741089e-01 1.6803046688437462e-02</leafValues></_>
    <_>
      <internalNodes>
        0 -1 138745 2.4943419266492128e-03</internalNodes>
      <leafValues>
        -8.4788210690021515e-02 1.9446620345115662e-01</leafValues></_>
    <_>
      <internalNodes>
        0 -1 68462 4.5712850987911224e-03</internalNodes>
      <leafValues>
        6.4142495393753052e-02 -2.8787595033645630e-01</leafValues></_>
    <_>
      <internalNodes>
        0 -1 135806 1.1673767585307360e-03</internalNodes>
      <leafValues>
        -4.0296666324138641e-02 4.2641714215278625e-01</leafValues></_>
    <_>
      <internalNodes>
        0 -1 169720 -2.0832596346735954e-03</internalNodes>
      <leafValues>
        -2.0703029632568359e-01 8.0724813044071198e-02</leafValues></_>
    <_>
      <internalNodes>
        0 -1 118576 1.0331588238477707e-01</internalNodes>
      <leafValues>
        -3.8687750697135925e-02 4.3839970231056213e-01</leafValues></_>
    <_>
      <internalNodes>
        0 -1 36968 -4.0592678124085069e-04</internalNodes>
      <leafValues>
        -1.6201420128345490e-01 9.8029673099517822e-02</leafValues></_>
    <_>
      <internalNodes>
        0 -1 149692 -2.7015979867428541e-03</internalNodes>
      <leafValues>
        1.9057588279247284e-01 -8.8133685290813446e-02</leafValues></_>
    <_>
      <internalNodes>
        0 -1 125882 -4.4869072735309601e-02</internalNodes>
      <leafValues>
        -4.4541114568710327e-01 3.8992468267679214e-02</leafValues></_>
    <_>
      <internalNodes>
        0 -1 93965 -4.4363709166646004e-03</internalNodes>
      <leafValues>
        1.8377274274826050e-01 -9.3614973127841949e-02</leafValues></_>
    <_>
      <internalNodes>
        0 -1 13393 1.6115847975015640e-02</internalNodes>
      <leafValues>
        -5.4934874176979065e-02 2.7633315324783325e-01</leafValues></_>
    <_>
      <internalNodes>
        0 -1 186151 1.4597378671169281e-02</internalNodes>
      <leafValues>
        -5.5375318974256516e-02 3.4631362557411194e-01</leafValues></_>
    <_>
      <internalNodes>
        0 -1 186726 -1.6427580267190933e-03</internalNodes>
      <leafValues>
        1.6727271676063538e-01 -9.4238825142383575e-02</leafValues></_>
    <_>
      <internalNodes>
        0 -1 16841 -6.1290008015930653e-03</internalNodes>
      <leafValues>
        -3.1345057487487793e-01 5.5108685046434402e-02</leafValues></_>
    <_>
      <internalNodes>
        0 -1 159725 1.8886469770222902e-03</internalNodes>
      <leafValues>
        -5.2953444421291351e-02 3.2502162456512451e-01</leafValues></_>
    <_>
      <internalNodes>
        0 -1 82689 -9.6861639758571982e-04</internalNodes>
      <leafValues>
        -1.8357530236244202e-01 9.2412851750850677e-02</leafValues></_>
    <_>
      <internalNodes>
        0 -1 44245 -8.8569577783346176e-03</internalNodes>
      <leafValues>
        6.2340652942657471e-01 -2.7882067486643791e-02</leafValues></_>
    <_>
      <internalNodes>
        0 -1 163200 -4.9722947180271149e-02</internalNodes>
      <leafValues>
        -7.3841702938079834e-01 2.4312967434525490e-02</leafValues></_>
    <_>
      <internalNodes>
        0 -1 161590 -3.4271936863660812e-02</internalNodes>
      <leafValues>
        4.7594609856605530e-01 -3.8573890924453735e-02</leafValues></_>
    <_>
      <internalNodes>
        0 -1 173132 -1.0015040170401335e-03</internalNodes>
      <leafValues>
        -1.9886343181133270e-01 8.4923267364501953e-02</leafValues></_>
    <_>
      <internalNodes>
        0 -1 175499 -8.1298239529132843e-03</internalNodes>
      <leafValues>
        6.2812250852584839e-01 -2.6267383247613907e-02</leafValues></_>
    <_>
      <internalNodes>
        0 -1 23399 3.5458944737911224e-02</internalNodes>
      <leafValues>
        3.3373687416315079e-02 -5.0906157493591309e-01</leafValues></_>
    <_>
      <internalNodes>
        0 -1 64537 -6.3011879101395607e-03</internalNodes>
      <leafValues>
        2.5960347056388855e-01 -6.9585174322128296e-02</leafValues></_>
    <_>
      <internalNodes>
        0 -1 89269 -1.6452856652904302e-04</internalNodes>
      <leafValues>
        -1.5404532849788666e-01 1.1002055555582047e-01</leafValues></_>
    <_>
      <internalNodes>
        0 -1 93817 3.6845136433839798e-02</internalNodes>
      <leafValues>
        -9.3068197369575500e-02 1.7898707091808319e-01</leafValues></_>
    <_>
      <internalNodes>
        0 -1 29703 -1.9100708595942706e-04</internalNodes>
      <leafValues>
        -1.6405418515205383e-01 9.5271006226539612e-02</leafValues></_>
    <_>
      <internalNodes>
        0 -1 122852 -7.2699235752224922e-03</internalNodes>
      <leafValues>
        2.5833433866500854e-01 -6.7339047789573669e-02</leafValues></_>
    <_>
      <internalNodes>
        0 -1 174040 3.1113685108721256e-03</internalNodes>
      <leafValues>
        5.8452546596527100e-02 -2.7712640166282654e-01</leafValues></_>
    <_>
      <internalNodes>
        0 -1 158755 1.0152123868465424e-03</internalNodes>
      <leafValues>
        -4.7105614095926285e-02 4.3692484498023987e-01</leafValues></_>
    <_>
      <internalNodes>
        0 -1 77926 -2.7919691056013107e-03</internalNodes>
      <leafValues>
        -2.0729216933250427e-01 7.8403696417808533e-02</leafValues></_>
    <_>
      <internalNodes>
        0 -1 28942 -1.4309860765933990e-02</internalNodes>
      <leafValues>
        2.6648947596549988e-01 -6.3942290842533112e-02</leafValues></_>
    <_>
      <internalNodes>
        0 -1 146195 -1.3492060825228691e-03</internalNodes>
      <leafValues>
        3.9406037330627441e-01 -3.7952873855829239e-02</leafValues></_>
    <_>
      <internalNodes>
        0 -1 138652 9.4679957255721092e-03</internalNodes>
      <leafValues>
        3.3010594546794891e-02 -4.9576821923255920e-01</leafValues></_>
    <_>
      <internalNodes>
        0 -1 95329 -2.7629360556602478e-04</internalNodes>
      <leafValues>
        -2.0564275979995728e-01 7.6635167002677917e-02</leafValues></_>
    <_>
      <internalNodes>
        0 -1 44499 1.2735842727124691e-02</internalNodes>
      <leafValues>
        -6.3664510846138000e-02 2.7555543184280396e-01</leafValues></_>
    <_>
      <internalNodes>
        0 -1 175287 1.9140276126563549e-03</internalNodes>
      <leafValues>
        -8.4442630410194397e-02 2.0890805125236511e-01</leafValues></_>
    <_>
      <internalNodes>
        0 -1 121555 -1.0157672222703695e-03</internalNodes>
      <leafValues>
        -1.6076295077800751e-01 1.1196565628051758e-01</leafValues></_>
    <_>
      <internalNodes>
        0 -1 170690 -2.8306024614721537e-04</internalNodes>
      <leafValues>
        2.1356894075870514e-01 -9.6001125872135162e-02</leafValues></_>
    <_>
      <internalNodes>
        0 -1 138699 1.3800922781229019e-02</internalNodes>
      <leafValues>
        -6.5481685101985931e-02 2.4897234141826630e-01</leafValues></_>
    <_>
      <internalNodes>
        0 -1 63908 -1.8203880637884140e-02</internalNodes>
      <leafValues>
        6.6183549165725708e-01 -2.4582786485552788e-02</leafValues></_></weakClassifiers></stage2>
</opencv_storage>
