<?xml version="1.0"?>
<opencv_storage>
<stage9>
  <maxWeakCount>99</maxWeakCount>
  <stageThreshold>-9.2133331298828125e-01</stageThreshold>
  <weakClassifiers>
    <_>
      <internalNodes>
        0 -1 175518 1.1003311374224722e-04</internalNodes>
      <leafValues>
        -3.4840217232704163e-01 -1.1697449535131454e-01</leafValues></_>
    <_>
      <internalNodes>
        0 -1 159125 8.9068673551082611e-03</internalNodes>
      <leafValues>
        1.4058000408113003e-02 -6.9738000631332397e-01</leafValues></_>
    <_>
      <internalNodes>
        0 -1 189472 -2.1364286658354104e-04</internalNodes>
      <leafValues>
        -1.3641273975372314e-01 1.0127611458301544e-01</leafValues></_>
    <_>
      <internalNodes>
        0 -1 159125 8.2563403993844986e-03</internalNodes>
      <leafValues>
        -1.5678431838750839e-02 8.3723437786102295e-01</leafValues></_>
    <_>
      <internalNodes>
        0 -1 159125 8.0674635246396065e-03</internalNodes>
      <leafValues>
        1.6037746099755168e-03 -7.5225025415420532e-01</leafValues></_>
    <_>
      <internalNodes>
        0 -1 190437 5.5588213726878166e-03</internalNodes>
      <leafValues>
        3.5993400961160660e-02 -5.6548905372619629e-01</leafValues></_>
    <_>
      <internalNodes>
        0 -1 190437 5.4985960014164448e-03</internalNodes>
      <leafValues>
        -5.5634893942624331e-04 1.</leafValues></_>
    <_>
      <internalNodes>
        0 -1 190437 5.4141720756888390e-03</internalNodes>
      <leafValues>
        6.6639709984883666e-04 -7.9903316497802734e-01</leafValues></_>
    <_>
      <internalNodes>
        0 -1 159125 8.0348588526248932e-03</internalNodes>
      <leafValues>
        -9.5197763293981552e-03 8.5188847780227661e-01</leafValues></_>
    <_>
      <internalNodes>
        0 -1 159125 7.9806046560406685e-03</internalNodes>
      <leafValues>
        8.3442428149282932e-04 -8.2584893703460693e-01</leafValues></_>
    <_>
      <internalNodes>
        0 -1 159125 7.9393470659852028e-03</internalNodes>
      <leafValues>
        -1.1838781647384167e-03 8.5433965921401978e-01</leafValues></_>
    <_>
      <internalNodes>
        0 -1 159125 7.9806046560406685e-03</internalNodes>
      <leafValues>
        3.0983853503130376e-04 -8.3469760417938232e-01</leafValues></_>
    <_>
      <internalNodes>
        0 -1 145728 -4.0441373130306602e-04</internalNodes>
      <leafValues>
        -1.4937901496887207e-01 8.9365892112255096e-02</leafValues></_>
    <_>
      <internalNodes>
        0 -1 167896 8.3097291644662619e-04</internalNodes>
      <leafValues>
        -4.4549815356731415e-02 2.2494959831237793e-01</leafValues></_>
    <_>
      <internalNodes>
        0 -1 52897 1.6965281218290329e-02</internalNodes>
      <leafValues>
        1.6301140189170837e-02 -6.5553569793701172e-01</leafValues></_>
    <_>
      <internalNodes>
        0 -1 54921 2.2054479923099279e-03</internalNodes>
      <leafValues>
        -6.9233193993568420e-02 1.9244137406349182e-01</leafValues></_>
    <_>
      <internalNodes>
        0 -1 145899 -1.0601825488265604e-04</internalNodes>
      <leafValues>
        -1.3355559110641479e-01 1.0189346969127655e-01</leafValues></_>
    <_>
      <internalNodes>
        0 -1 82548 -1.9142980454489589e-04</internalNodes>
      <leafValues>
        -1.5284000337123871e-01 8.0714397132396698e-02</leafValues></_>
    <_>
      <internalNodes>
        0 -1 68236 -1.2338686734437943e-02</internalNodes>
      <leafValues>
        5.5216699838638306e-01 -1.3782844878733158e-02</leafValues></_>
    <_>
      <internalNodes>
        0 -1 53810 -3.3320570364594460e-03</internalNodes>
      <leafValues>
        -3.9571541547775269e-01 2.9574306681752205e-02</leafValues></_>
    <_>
      <internalNodes>
        0 -1 108778 -4.4829503167420626e-04</internalNodes>
      <leafValues>
        1.5216094255447388e-01 -8.4323637187480927e-02</leafValues></_>
    <_>
      <internalNodes>
        0 -1 164352 -4.5094187953509390e-04</internalNodes>
      <leafValues>
        1.5537868440151215e-01 -7.8519739210605621e-02</leafValues></_>
    <_>
      <internalNodes>
        0 -1 159279 -9.7920885309576988e-03</internalNodes>
      <leafValues>
        -7.7962213754653931e-01 1.0220869444310665e-02</leafValues></_>
    <_>
      <internalNodes>
        0 -1 49338 -8.3080790936946869e-03</internalNodes>
      <leafValues>
        -1.4642789959907532e-01 8.6943961679935455e-02</leafValues></_>
    <_>
      <internalNodes>
        0 -1 64483 -4.0031312964856625e-03</internalNodes>
      <leafValues>
        2.7229815721511841e-01 -5.1100715994834900e-02</leafValues></_>
    <_>
      <internalNodes>
        0 -1 182680 9.4421599060297012e-03</internalNodes>
      <leafValues>
        2.4650491774082184e-02 -4.1667446494102478e-01</leafValues></_>
    <_>
      <internalNodes>
        0 -1 41476 -3.3128127688542008e-04</internalNodes>
      <leafValues>
        -1.4351454377174377e-01 8.6711570620536804e-02</leafValues></_>
    <_>
      <internalNodes>
        0 -1 170229 -5.4463259875774384e-03</internalNodes>
      <leafValues>
        2.7654427289962769e-01 -5.8790557086467743e-02</leafValues></_>
    <_>
      <internalNodes>
        0 -1 179443 1.3516902923583984e-02</internalNodes>
      <leafValues>
        1.9348626956343651e-02 -6.9686418771743774e-01</leafValues></_>
    <_>
      <internalNodes>
        0 -1 149130 5.4969051852822304e-03</internalNodes>
      <leafValues>
        9.6580594778060913e-02 -1.2749527394771576e-01</leafValues></_>
    <_>
      <internalNodes>
        0 -1 182710 -7.4430811218917370e-04</internalNodes>
      <leafValues>
        1.7149658501148224e-01 -7.2533428668975830e-02</leafValues></_>
    <_>
      <internalNodes>
        0 -1 145608 2.7188966050744057e-03</internalNodes>
      <leafValues>
        -7.8427538275718689e-02 1.7212475836277008e-01</leafValues></_>
    <_>
      <internalNodes>
        0 -1 120712 2.5009422097355127e-04</internalNodes>
      <leafValues>
        7.2527483105659485e-02 -1.7546555399894714e-01</leafValues></_>
    <_>
      <internalNodes>
        0 -1 75654 -4.2525706812739372e-03</internalNodes>
      <leafValues>
        -2.8402891755104065e-01 4.5823391526937485e-02</leafValues></_>
    <_>
      <internalNodes>
        0 -1 51838 -6.7856074310839176e-03</internalNodes>
      <leafValues>
        2.3829668760299683e-01 -4.9647029489278793e-02</leafValues></_>
    <_>
      <internalNodes>
        0 -1 164577 -3.2607477623969316e-03</internalNodes>
      <leafValues>
        -4.8759579658508301e-01 2.2947881370782852e-02</leafValues></_>
    <_>
      <internalNodes>
        0 -1 152403 4.6186088584363461e-03</internalNodes>
      <leafValues>
        -4.2254555970430374e-02 3.0197164416313171e-01</leafValues></_>
    <_>
      <internalNodes>
        0 -1 139489 -1.2069276534020901e-02</internalNodes>
      <leafValues>
        2.3397929966449738e-01 -5.3681898862123489e-02</leafValues></_>
    <_>
      <internalNodes>
        0 -1 99627 1.8007748294621706e-03</internalNodes>
      <leafValues>
        5.7809725403785706e-02 -1.9737721979618073e-01</leafValues></_>
    <_>
      <internalNodes>
        0 -1 14611 -1.3795435428619385e-02</internalNodes>
      <leafValues>
        -7.2829198837280273e-01 1.6435099765658379e-02</leafValues></_>
    <_>
      <internalNodes>
        0 -1 73326 -4.1109930723905563e-02</internalNodes>
      <leafValues>
        2.7246358990669250e-01 -4.4777020812034607e-02</leafValues></_>
    <_>
      <internalNodes>
        0 -1 21611 -5.2221007645130157e-02</internalNodes>
      <leafValues>
        -7.4267095327377319e-01 1.5938777476549149e-02</leafValues></_>
    <_>
      <internalNodes>
        0 -1 62739 6.1384565196931362e-03</internalNodes>
      <leafValues>
        -4.2004220187664032e-02 3.3456593751907349e-01</leafValues></_>
    <_>
      <internalNodes>
        0 -1 50059 -4.3416328728199005e-02</internalNodes>
      <leafValues>
        -5.8689326047897339e-01 2.2874806076288223e-02</leafValues></_>
    <_>
      <internalNodes>
        0 -1 96422 -3.0682412907481194e-03</internalNodes>
      <leafValues>
        -2.5297993421554565e-01 4.5299548655748367e-02</leafValues></_>
    <_>
      <internalNodes>
        0 -1 41704 -4.2880028486251831e-03</internalNodes>
      <leafValues>
        2.3744162917137146e-01 -5.3838409483432770e-02</leafValues></_>
    <_>
      <internalNodes>
        0 -1 160905 4.5385480916593224e-05</internalNodes>
      <leafValues>
        -1.0848002880811691e-01 1.0907095670700073e-01</leafValues></_>
    <_>
      <internalNodes>
        0 -1 41385 -6.8209320306777954e-03</internalNodes>
      <leafValues>
        2.3143692314624786e-01 -5.5094316601753235e-02</leafValues></_>
    <_>
      <internalNodes>
        0 -1 55170 -2.3541543632745743e-03</internalNodes>
      <leafValues>
        -2.7558341622352600e-01 5.1689464598894119e-02</leafValues></_>
    <_>
      <internalNodes>
        0 -1 83977 4.7877393662929535e-02</internalNodes>
      <leafValues>
        -3.7055112421512604e-02 3.5879614949226379e-01</leafValues></_>
    <_>
      <internalNodes>
        0 -1 158551 -1.2724770931527019e-04</internalNodes>
      <leafValues>
        1.3719093799591064e-01 -8.7429217994213104e-02</leafValues></_>
    <_>
      <internalNodes>
        0 -1 89535 -1.4510245528072119e-03</internalNodes>
      <leafValues>
        -1.8684034049510956e-01 6.7212790250778198e-02</leafValues></_>
    <_>
      <internalNodes>
        0 -1 129004 -1.2429619207978249e-02</internalNodes>
      <leafValues>
        1.6638641059398651e-01 -8.2257367670536041e-02</leafValues></_>
    <_>
      <internalNodes>
        0 -1 147502 -4.1772662661969662e-03</internalNodes>
      <leafValues>
        2.3576505482196808e-01 -5.4300028830766678e-02</leafValues></_>
    <_>
      <internalNodes>
        0 -1 124101 -5.0544133409857750e-04</internalNodes>
      <leafValues>
        -1.7586375772953033e-01 7.5703538954257965e-02</leafValues></_>
    <_>
      <internalNodes>
        0 -1 16160 -3.4958980977535248e-02</internalNodes>
      <leafValues>
        4.3628725409507751e-01 -2.7665754780173302e-02</leafValues></_>
    <_>
      <internalNodes>
        0 -1 165302 8.6242265999317169e-02</internalNodes>
      <leafValues>
        -2.0029017701745033e-02 5.5527442693710327e-01</leafValues></_>
    <_>
      <internalNodes>
        0 -1 14382 -7.1641748945694417e-05</internalNodes>
      <leafValues>
        -1.3388368487358093e-01 9.3631505966186523e-02</leafValues></_>
    <_>
      <internalNodes>
        0 -1 29095 3.6630262620747089e-03</internalNodes>
      <leafValues>
        -7.1876682341098785e-02 1.7291198670864105e-01</leafValues></_>
    <_>
      <internalNodes>
        0 -1 189454 -7.2147918399423361e-04</internalNodes>
      <leafValues>
        1.7339651286602020e-01 -7.1570418775081635e-02</leafValues></_>
    <_>
      <internalNodes>
        0 -1 141309 7.6187036931514740e-02</internalNodes>
      <leafValues>
        4.7857355326414108e-02 -2.3415577411651611e-01</leafValues></_>
    <_>
      <internalNodes>
        0 -1 118062 2.3607838153839111e-01</internalNodes>
      <leafValues>
        -2.3293934762477875e-02 6.0360425710678101e-01</leafValues></_>
    <_>
      <internalNodes>
        0 -1 171770 2.6596443727612495e-02</internalNodes>
      <leafValues>
        -1.2453632429242134e-02 7.9412978887557983e-01</leafValues></_>
    <_>
      <internalNodes>
        0 -1 190406 7.5339694740250707e-04</internalNodes>
      <leafValues>
        -6.1335921287536621e-02 1.9952537119388580e-01</leafValues></_>
    <_>
      <internalNodes>
        0 -1 182810 -1.4871610328555107e-03</internalNodes>
      <leafValues>
        -1.9107037782669067e-01 7.3132708668708801e-02</leafValues></_>
    <_>
      <internalNodes>
        0 -1 182660 1.4246355567593127e-04</internalNodes>
      <leafValues>
        -8.8867716491222382e-02 1.3140723109245300e-01</leafValues></_>
    <_>
      <internalNodes>
        0 -1 189383 -7.6283473754301667e-04</internalNodes>
      <leafValues>
        -1.5140163898468018e-01 7.7634528279304504e-02</leafValues></_>
    <_>
      <internalNodes>
        0 -1 178761 7.5812259456142783e-04</internalNodes>
      <leafValues>
        7.8963153064250946e-02 -1.4561773836612701e-01</leafValues></_>
    <_>
      <internalNodes>
        0 -1 184999 5.7698441669344902e-03</internalNodes>
      <leafValues>
        -6.2629140913486481e-02 1.9345712661743164e-01</leafValues></_>
    <_>
      <internalNodes>
        0 -1 178641 -1.2265436351299286e-02</internalNodes>
      <leafValues>
        6.0159552097320557e-01 -1.9931491464376450e-02</leafValues></_>
    <_>
      <internalNodes>
        0 -1 165458 1.7780811758711934e-03</internalNodes>
      <leafValues>
        3.7112299352884293e-02 -3.2975065708160400e-01</leafValues></_>
    <_>
      <internalNodes>
        0 -1 165458 -9.3427326646633446e-05</internalNodes>
      <leafValues>
        -1.2946940958499908e-01 9.6553184092044830e-02</leafValues></_>
    <_>
      <internalNodes>
        0 -1 14415 -4.3144784867763519e-03</internalNodes>
      <leafValues>
        1.7821384966373444e-01 -7.1478478610515594e-02</leafValues></_>
    <_>
      <internalNodes>
        0 -1 24443 -9.7045108675956726e-02</internalNodes>
      <leafValues>
        4.5935505628585815e-01 -2.5969885289669037e-02</leafValues></_>
    <_>
      <internalNodes>
        0 -1 119480 -1.1616277042776346e-03</internalNodes>
      <leafValues>
        2.4728634953498840e-01 -4.6948943287134171e-02</leafValues></_>
    <_>
      <internalNodes>
        0 -1 118710 -3.8824928924441338e-04</internalNodes>
      <leafValues>
        -1.4821498095989227e-01 8.6322441697120667e-02</leafValues></_>
    <_>
      <internalNodes>
        0 -1 64529 -2.0467687398195267e-02</internalNodes>
      <leafValues>
        -5.8889740705490112e-01 2.3200765252113342e-02</leafValues></_>
    <_>
      <internalNodes>
        0 -1 99896 4.3286847358103842e-05</internalNodes>
      <leafValues>
        1.0271444171667099e-01 -1.1765162646770477e-01</leafValues></_>
    <_>
      <internalNodes>
        0 -1 138486 -5.9908541152253747e-04</internalNodes>
      <leafValues>
        1.7347122728824615e-01 -7.4897326529026031e-02</leafValues></_>
    <_>
      <internalNodes>
        0 -1 173181 -1.2578822206705809e-03</internalNodes>
      <leafValues>
        1.7754912376403809e-01 -7.2638057172298431e-02</leafValues></_>
    <_>
      <internalNodes>
        0 -1 175718 -3.7857594434171915e-03</internalNodes>
      <leafValues>
        -1.4405742287635803e-01 9.6463762223720551e-02</leafValues></_>
    <_>
      <internalNodes>
        0 -1 149606 3.7643630057573318e-03</internalNodes>
      <leafValues>
        3.7459101527929306e-02 -3.4892520308494568e-01</leafValues></_>
    <_>
      <internalNodes>
        0 -1 186512 9.8564112558960915e-03</internalNodes>
      <leafValues>
        -3.7274368107318878e-02 3.1744712591171265e-01</leafValues></_>
    <_>
      <internalNodes>
        0 -1 189422 1.4394113095477223e-03</internalNodes>
      <leafValues>
        -8.7061673402786255e-02 1.3491387665271759e-01</leafValues></_>
    <_>
      <internalNodes>
        0 -1 190372 -1.7071525799110532e-03</internalNodes>
      <leafValues>
        -2.4976786971092224e-01 4.6582464128732681e-02</leafValues></_>
    <_>
      <internalNodes>
        0 -1 34267 -9.3568916781805456e-05</internalNodes>
      <leafValues>
        -1.2615363299846649e-01 9.4851545989513397e-02</leafValues></_>
    <_>
      <internalNodes>
        0 -1 176624 2.0324085652828217e-01</internalNodes>
      <leafValues>
        1.8769256770610809e-02 -6.7467600107192993e-01</leafValues></_>
    <_>
      <internalNodes>
        0 -1 67410 4.6035951527301222e-05</internalNodes>
      <leafValues>
        8.8948160409927368e-02 -1.4414785802364349e-01</leafValues></_>
    <_>
      <internalNodes>
        0 -1 187675 -1.0325598123017699e-04</internalNodes>
      <leafValues>
        -1.3979622721672058e-01 8.6657427251338959e-02</leafValues></_>
    <_>
      <internalNodes>
        0 -1 29371 -7.6646974775940180e-04</internalNodes>
      <leafValues>
        2.6965859532356262e-01 -4.5863579958677292e-02</leafValues></_>
    <_>
      <internalNodes>
        0 -1 23045 -6.3138291239738464e-02</internalNodes>
      <leafValues>
        6.6545599699020386e-01 -1.8066596239805222e-02</leafValues></_>
    <_>
      <internalNodes>
        0 -1 189580 9.8289242014288902e-03</internalNodes>
      <leafValues>
        1.6970654949545860e-02 -7.3139017820358276e-01</leafValues></_>
    <_>
      <internalNodes>
        0 -1 83758 3.1686700822319835e-05</internalNodes>
      <leafValues>
        -1.1252634227275848e-01 1.0754213482141495e-01</leafValues></_>
    <_>
      <internalNodes>
        0 -1 186498 3.2077638024929911e-05</internalNodes>
      <leafValues>
        1.0971164703369141e-01 -1.1210249364376068e-01</leafValues></_>
    <_>
      <internalNodes>
        0 -1 190470 2.3332308046519756e-04</internalNodes>
      <leafValues>
        -8.5276909172534943e-02 1.4941258728504181e-01</leafValues></_>
    <_>
      <internalNodes>
        0 -1 169569 4.1895145550370216e-03</internalNodes>
      <leafValues>
        2.8469095006585121e-02 -4.2397567629814148e-01</leafValues></_>
    <_>
      <internalNodes>
        0 -1 155398 2.3386848624795675e-04</internalNodes>
      <leafValues>
        -9.9655054509639740e-02 1.2675251066684723e-01</leafValues></_>
    <_>
      <internalNodes>
        0 -1 151859 -1.5121410833671689e-03</internalNodes>
      <leafValues>
        -1.7470519244670868e-01 7.2969555854797363e-02</leafValues></_>
    <_>
      <internalNodes>
        0 -1 55580 1.0750426910817623e-02</internalNodes>
      <leafValues>
        -7.0695824921131134e-02 1.8802793323993683e-01</leafValues></_></weakClassifiers></stage9>
</opencv_storage>
